{"learner":{"attributes":{"scikit_learn":"{\"_estimator_type\": \"regressor\"}"},"feature_names":["D11","D22","D32","D41","D52","D61","D53","D23","D16","D21"],"feature_types":["float","float","float","float","float","float","float","float","float","float"],"gradient_booster":{"model":{"cats":{"enc":[],"feature_segments":[],"sorted_idx":[]},"gbtree_model_param":{"num_parallel_tree":"1","num_trees":"200"},"iteration_indptr":[0,1,2,3,4,5,6,7,8,9,10,11,12,13,14,15,16,17,18,19,20,21,22,23,24,25,26,27,28,29,30,31,32,33,34,35,36,37,38,39,40,41,42,43,44,45,46,47,48,49,50,51,52,53,54,55,56,57,58,59,60,61,62,63,64,65,66,67,68,69,70,71,72,73,74,75,76,77,78,79,80,81,82,83,84,85,86,87,88,89,90,91,92,93,94,95,96,97,98,99,100,101,102,103,104,105,106,107,108,109,110,111,112,113,114,115,116,117,118,119,120,121,122,123,124,125,126,127,128,129,130,131,132,133,134,135,136,137,138,139,140,141,142,143,144,145,146,147,148,149,150,151,152,153,154,155,156,157,158,159,160,161,162,163,164,165,166,167,168,169,170,171,172,173,174,175,176,177,178,179,180,181,182,183,184,185,186,187,188,189,190,191,192,193,194,195,196,197,198,199,200],"tree_info":[0,0,0,0,0,0,0,0,0,0,0,0,0,0,0,0,0,0,0,0,0,0,0,0,0,0,0,0,0,0,0,0,0,0,0,0,0,0,0,0,0,0,0,0,0,0,0,0,0,0,0,0,0,0,0,0,0,0,0,0,0,0,0,0,0,0,0,0,0,0,0,0,0,0,0,0,0,0,0,0,0,0,0,0,0,0,0,0,0,0,0,0,0,0,0,0,0,0,0,0,0,0,0,0,0,0,0,0,0,0,0,0,0,0,0,0,0,0,0,0,0,0,0,0,0,0,0,0,0,0,0,0,0,0,0,0,0,0,0,0,0,0,0,0,0,0,0,0,0,0,0,0,0,0,0,0,0,0,0,0,0,0,0,0,0,0,0,0,0,0,0,0,0,0,0,0,0,0,0,0,0,0,0,0,0,0,0,0,0,0,0,0,0,0,0,0,0,0,0,0],"trees":[{"base_weights":[5.182274E-2,-1.6181622E1,1.5831899E1,-2.8978483E1,-6.5238132E0,5.4316626E0,2.683227E1,-3.5861015E1,-2.104661E1,-1.3181793E1,-1.7486143E-1,-1.7486143E-1,1.16303005E1,1.782859E1,3.2581738E1,-3.9358063E1,-2.8453812E1,-2.6235672E1,-1.7751148E1,-1.7751148E1,-6.6783276E0,-6.6783276E0,-1.7486143E-1,-1.7486143E-1,5.3624163E0,7.9818535E0,1.6131966E1,1.6131966E1,2.5205164E1,2.7218052E1,3.7567688E1,-2.2156734E0,-1.7666916E0,-1.6067637E0,-1.4226906E0,-1.4226906E0,-1.0996705E0,-1.031544E0,-8.8755745E-1,-8.8755745E-1,-6.107369E-1,-6.107369E-1,-3.339164E-1,-3.339164E-1,-1.7132972E-1,-1.7132972E-1,-8.743072E-3,-8.743072E-3,1.2968887E-1,1.2968887E-1,2.8638598E-1,2.8638598E-1,5.874306E-1,6.028455E-1,8.065983E-1,8.065983E-1,9.78528E-1,1.0334282E0,1.2602582E0,1.2602582E0,1.5007714E0,1.6196434E0,1.9188496E0],"categories":[],"categories_nodes":[],"categories_segments":[],"categories_sizes":[],"default_left":[0,0,0,0,0,0,0,0,0,0,0,0,0,0,0,0,0,0,0,0,0,0,0,0,0,0,0,0,0,0,0,0,0,0,0,0,0,0,0,0,0,0,0,0,0,0,0,0,0,0,0,0,0,0,0,0,0,0,0,0,0,0,0],"id":0,"left_children":[1,3,5,7,9,11,13,15,17,19,21,23,25,27,29,31,33,35,37,39,41,43,45,47,49,51,53,55,57,59,61,-1,-1,-1,-1,-1,-1,-1,-1,-1,-1,-1,-1,-1,-1,-1,-1,-1,-1,-1,-1,-1,-1,-1,-1,-1,-1,-1,-1,-1,-1,-1,-1],"loss_changes":[6.548089E6,1.55704E6,1.4827905E6,2.95076E5,4.594604E5,3.070048E5,3.25495E5,9.821475E4,6.7484625E4,1.3375088E5,1.2297651E4,2.5632938E4,8.212978E4,4.3856812E4,1.01751E5,4.172825E4,1.1826875E3,1.97705E4,3.856125E3,3.1276688E4,1.4748664E4,1.186956E3,4.331703E3,1.8478528E3,1.069243E4,3.0949938E4,7.51325E3,1.3171719E4,5.5080312E3,1.9406875E4,1.0933E4,0E0,0E0,0E0,0E0,0E0,0E0,0E0,0E0,0E0,0E0,0E0,0E0,0E0,0E0,0E0,0E0,0E0,0E0,0E0,0E0,0E0,0E0,0E0,0E0,0E0,0E0,0E0,0E0,0E0,0E0,0E0,0E0],"parents":[2147483647,0,0,1,1,2,2,3,3,4,4,5,5,6,6,7,7,8,8,9,9,10,10,11,11,12,12,13,13,14,14,15,15,16,16,17,17,18,18,19,19,20,20,21,21,22,22,23,23,24,24,25,25,26,26,27,27,28,28,29,29,30,30],"right_children":[2,4,6,8,10,12,14,16,18,20,22,24,26,28,30,32,34,36,38,40,42,44,46,48,50,52,54,56,58,60,62,-1,-1,-1,-1,-1,-1,-1,-1,-1,-1,-1,-1,-1,-1,-1,-1,-1,-1,-1,-1,-1,-1,-1,-1,-1,-1,-1,-1,-1,-1,-1,-1],"split_conditions":[4E0,2E0,3E0,2E0,2E0,3E0,4E0,2E0,2E0,3E0,2E0,2E0,2E0,4E0,4E0,1E0,1E0,2E0,2E0,3E0,2E0,3E0,2E0,4E0,3E0,4E0,3E0,3E0,3E0,2E0,4E0,-2.2156734E0,-1.7666916E0,-1.6067637E0,-1.4226906E0,-1.4226906E0,-1.0996705E0,-1.031544E0,-8.8755745E-1,-8.8755745E-1,-6.107369E-1,-6.107369E-1,-3.339164E-1,-3.339164E-1,-1.7132972E-1,-1.7132972E-1,-8.743072E-3,-8.743072E-3,1.2968887E-1,1.2968887E-1,2.8638598E-1,2.8638598E-1,5.874306E-1,6.028455E-1,8.065983E-1,8.065983E-1,9.78528E-1,1.0334282E0,1.2602582E0,1.2602582E0,1.5007714E0,1.6196434E0,1.9188496E0],"split_indices":[4,3,7,6,7,8,3,9,9,5,5,2,2,2,2,5,5,5,5,4,8,7,8,3,5,9,5,8,5,2,5,0,0,0,0,0,0,0,0,0,0,0,0,0,0,0,0,0,0,0,0,0,0,0,0,0,0,0,0,0,0,0,0],"split_type":[0,0,0,0,0,0,0,0,0,0,0,0,0,0,0,0,0,0,0,0,0,0,0,0,0,0,0,0,0,0,0,0,0,0,0,0,0,0,0,0,0,0,0,0,0,0,0,0,0,0,0,0,0,0,0,0,0,0,0,0,0,0,0],"sum_hessian":[2.556E4,1.2599E4,1.2961E4,5.418E3,7.181E3,6.663E3,6.298E3,2.899E3,2.519E3,4.426E3,2.755E3,2.958E3,3.705E3,2.456E3,3.842E3,2.17E3,7.29E2,1.321E3,1.198E3,2.612E3,1.814E3,2.18E2,2.537E3,2.123E3,8.35E2,2.37E3,1.335E3,1.947E3,5.09E2,1.854E3,1.988E3,9.68E2,1.202E3,1.46E2,5.83E2,8.24E2,4.97E2,5.02E2,6.96E2,1.78E3,8.32E2,2.81E2,1.533E3,1.56E2,6.2E1,2.41E2,2.296E3,1.917E3,2.06E2,3.34E2,5.01E2,1.184E3,1.186E3,2.19E2,1.116E3,8.12E2,1.135E3,6.2E1,4.47E2,6.64E2,1.19E3,1.67E2,1.821E3],"tree_param":{"num_deleted":"0","num_feature":"10","num_nodes":"63","size_leaf_vector":"1"}},{"base_weights":[-3.9276037E-2,-1.5646287E1,1.4597416E1,-2.6027134E1,-4.3310633E0,6.2633567E0,2.584631E1,-3.241725E1,-1.72485E1,-1.1440939E1,-5.244355E-1,-5.244355E-1,1.2976594E1,1.6208897E1,3.1652258E1,-4.0060886E1,-2.8579292E1,-2.299601E1,-1.5179098E1,-1.5179098E1,-7.4981546E0,-5.982687E0,-5.244355E-1,-5.244355E-1,4.135571E0,6.226079E0,1.6054832E1,1.6054832E1,2.3930576E1,2.480863E1,3.4796078E1,-2.1807482E0,-1.8195021E0,-1.6004746E0,-1.2416438E0,-1.2416438E0,-9.543778E-1,-9.0749544E-1,-7.5895494E-1,-7.5895494E-1,-5.6693137E-1,-5.639954E-1,-2.9913434E-1,-2.9913434E-1,-1.6267806E-1,-1.2081589E-1,-2.6221776E-2,-2.6221776E-2,4.207553E-2,9.027839E-2,3.1130394E-1,3.1130394E-1,4.706256E-1,5.5702275E-1,8.0274165E-1,8.0274165E-1,9.996352E-1,9.996352E-1,1.1965288E0,1.1965288E0,1.4294007E0,1.4901177E0,1.843953E0],"categories":[],"categories_nodes":[],"categories_segments":[],"categories_sizes":[],"default_left":[0,0,0,0,0,0,0,0,0,0,0,0,0,0,0,0,0,0,0,0,0,0,0,0,0,0,0,0,0,0,0,0,0,0,0,0,0,0,0,0,0,0,0,0,0,0,0,0,0,0,0,0,0,0,0,0,0,0,0,0,0,0,0],"id":1,"left_children":[1,3,5,7,9,11,13,15,17,19,21,23,25,27,29,31,33,35,37,39,41,43,45,47,49,51,53,55,57,59,61,-1,-1,-1,-1,-1,-1,-1,-1,-1,-1,-1,-1,-1,-1,-1,-1,-1,-1,-1,-1,-1,-1,-1,-1,-1,-1,-1,-1,-1,-1,-1,-1],"loss_changes":[5.8241795E6,1.4492462E6,1.2332925E6,3.60421E5,2.4870575E5,4.2184912E5,3.1277525E5,1.08073E5,6.410375E4,5.939275E4,2.2295201E4,3.2421207E4,1.4058238E5,2.9924125E4,7.42895E4,1.46165E4,4.0205625E4,1.2882E4,2.5056094E3,4.2658125E3,1.7471406E4,2.4822305E3,2.1937861E3,7.062598E1,2.2463955E4,4.185039E3,2.2830375E4,3.93825E3,1.8748438E3,9.4445625E3,2.5924E4,0E0,0E0,0E0,0E0,0E0,0E0,0E0,0E0,0E0,0E0,0E0,0E0,0E0,0E0,0E0,0E0,0E0,0E0,0E0,0E0,0E0,0E0,0E0,0E0,0E0,0E0,0E0,0E0,0E0,0E0,0E0,0E0],"parents":[2147483647,0,0,1,1,2,2,3,3,4,4,5,5,6,6,7,7,8,8,9,9,10,10,11,11,12,12,13,13,14,14,15,15,16,16,17,17,18,18,19,19,20,20,21,21,22,22,23,23,24,24,25,25,26,26,27,27,28,28,29,29,30,30],"right_children":[2,4,6,8,10,12,14,16,18,20,22,24,26,28,30,32,34,36,38,40,42,44,46,48,50,52,54,56,58,60,62,-1,-1,-1,-1,-1,-1,-1,-1,-1,-1,-1,-1,-1,-1,-1,-1,-1,-1,-1,-1,-1,-1,-1,-1,-1,-1,-1,-1,-1,-1,-1,-1],"split_conditions":[2E0,3E0,3E0,2E0,3E0,3E0,4E0,1E0,2E0,2E0,2E0,3E0,4E0,4E0,4E0,1E0,2E0,1E0,2E0,2E0,2E0,3E0,4E0,4E0,4E0,3E0,3E0,4E0,3E0,4E0,4E0,-2.1807482E0,-1.8195021E0,-1.6004746E0,-1.2416438E0,-1.2416438E0,-9.543778E-1,-9.0749544E-1,-7.5895494E-1,-7.5895494E-1,-5.6693137E-1,-5.639954E-1,-2.9913434E-1,-2.9913434E-1,-1.6267806E-1,-1.2081589E-1,-2.6221776E-2,-2.6221776E-2,4.207553E-2,9.027839E-2,3.1130394E-1,3.1130394E-1,4.706256E-1,5.5702275E-1,8.0274165E-1,8.0274165E-1,9.996352E-1,9.996352E-1,1.1965288E0,1.1965288E0,1.4294007E0,1.4901177E0,1.843953E0],"split_indices":[1,4,2,5,5,8,5,8,8,8,8,5,4,8,8,0,0,2,0,2,9,0,4,0,4,7,5,0,5,7,7,0,0,0,0,0,0,0,0,0,0,0,0,0,0,0,0,0,0,0,0,0,0,0,0,0,0,0,0,0,0,0,0],"split_type":[0,0,0,0,0,0,0,0,0,0,0,0,0,0,0,0,0,0,0,0,0,0,0,0,0,0,0,0,0,0,0,0,0,0,0,0,0,0,0,0,0,0,0,0,0,0,0,0,0,0,0,0,0,0,0,0,0,0,0,0,0,0,0],"sum_hessian":[2.5494E4,1.2338E4,1.3156E4,6.434E3,5.904E3,7.558E3,5.598E3,3.722E3,2.712E3,2.804E3,3.1E3,3.334E3,4.224E3,2.106E3,3.492E3,1.241E3,2.481E3,1.242E3,1.47E3,1.13E3,1.674E3,5.66E2,2.534E3,1.842E3,1.492E3,1.259E3,2.965E3,1.692E3,4.14E2,1.102E3,2.39E3,6.25E2,6.16E2,1.468E3,1.013E3,7.71E2,4.71E2,3.09E2,1.161E3,9.84E2,1.46E2,7.6E2,9.14E2,4.13E2,1.53E2,6.12E2,1.922E3,1.805E3,3.7E1,5.64E2,9.28E2,8.44E2,4.15E2,4.77E2,2.488E3,1.49E3,2.02E2,9.7E1,3.17E2,6.02E2,5E2,6.65E2,1.725E3],"tree_param":{"num_deleted":"0","num_feature":"10","num_nodes":"63","size_leaf_vector":"1"}},{"base_weights":[1.699661E-3,-1.4902311E1,1.3915125E1,-2.5304522E1,-4.131167E0,6.198479E0,2.6190458E1,-3.0996801E1,-1.7034792E1,-1.0164136E1,-4.9359322E-1,-4.9359322E-1,1.1440206E1,1.886573E1,3.112446E1,-3.68474E1,-2.6866165E1,-2.2245522E1,-1.4717844E1,-1.4717844E1,-6.8621902E0,-5.3288646E0,-4.9359322E-1,-4.9359322E-1,5.473306E0,6.059604E0,1.5948868E1,1.619447E1,2.3497883E1,2.6276625E1,3.3690365E1,-2.049928E0,-1.6501515E0,-1.5081931E0,-1.2007898E0,-1.2007898E0,-9.240841E-1,-9.240841E-1,-7.3589224E-1,-7.3589224E-1,-5.395009E-1,-5.395009E-1,-2.6644322E-1,-2.6644322E-1,-1.4556144E-1,-1.4556144E-1,-2.467966E-2,-2.467966E-2,1.193403E-1,1.24492824E-1,2.736653E-1,2.736653E-1,5.5021185E-1,5.7180744E-1,8.097235E-1,8.097235E-1,9.923088E-1,1.0421978E0,1.2497548E0,1.2497548E0,1.3963312E0,1.4991747E0,1.724852E0],"categories":[],"categories_nodes":[],"categories_segments":[],"categories_sizes":[],"default_left":[0,0,0,0,0,0,0,0,0,0,0,0,0,0,0,0,0,0,0,0,0,0,0,0,0,0,0,0,0,0,0,0,0,0,0,0,0,0,0,0,0,0,0,0,0,0,0,0,0,0,0,0,0,0,0,0,0,0,0,0,0,0,0],"id":2,"left_children":[1,3,5,7,9,11,13,15,17,19,21,23,25,27,29,31,33,35,37,39,41,43,45,47,49,51,53,55,57,59,61,-1,-1,-1,-1,-1,-1,-1,-1,-1,-1,-1,-1,-1,-1,-1,-1,-1,-1,-1,-1,-1,-1,-1,-1,-1,-1,-1,-1,-1,-1,-1,-1],"loss_changes":[5.2845105E6,1.3784818E6,1.2483055E6,2.9410575E5,2.0850672E5,3.6796866E5,1.83258E5,8.857175E4,4.5515375E4,6.719544E4,2.179296E4,2.6074979E4,1.2432956E5,3.2368812E4,3.69055E4,2.3079625E4,3.0844625E4,1.5589094E4,5.0888438E3,1.8998125E3,3.0136086E4,1.3635742E3,3.9751035E3,4.3555234E3,2.6957832E3,3.0727484E4,2.4678938E4,3.2112812E3,6.4014688E3,4.3269375E3,8.4405E3,0E0,0E0,0E0,0E0,0E0,0E0,0E0,0E0,0E0,0E0,0E0,0E0,0E0,0E0,0E0,0E0,0E0,0E0,0E0,0E0,0E0,0E0,0E0,0E0,0E0,0E0,0E0,0E0,0E0,0E0,0E0,0E0],"parents":[2147483647,0,0,1,1,2,2,3,3,4,4,5,5,6,6,7,7,8,8,9,9,10,10,11,11,12,12,13,13,14,14,15,15,16,16,17,17,18,18,19,19,20,20,21,21,22,22,23,23,24,24,25,25,26,26,27,27,28,28,29,29,30,30],"right_children":[2,4,6,8,10,12,14,16,18,20,22,24,26,28,30,32,34,36,38,40,42,44,46,48,50,52,54,56,58,60,62,-1,-1,-1,-1,-1,-1,-1,-1,-1,-1,-1,-1,-1,-1,-1,-1,-1,-1,-1,-1,-1,-1,-1,-1,-1,-1,-1,-1,-1,-1,-1,-1],"split_conditions":[3E0,3E0,3E0,2E0,3E0,4E0,4E0,1E0,2E0,2E0,2E0,2E0,4E0,4E0,4E0,1E0,2E0,1E0,1E0,3E0,1E0,3E0,2E0,4E0,3E0,2E0,4E0,4E0,4E0,4E0,4E0,-2.049928E0,-1.6501515E0,-1.5081931E0,-1.2007898E0,-1.2007898E0,-9.240841E-1,-9.240841E-1,-7.3589224E-1,-7.3589224E-1,-5.395009E-1,-5.395009E-1,-2.6644322E-1,-2.6644322E-1,-1.4556144E-1,-1.4556144E-1,-2.467966E-2,-2.467966E-2,1.193403E-1,1.24492824E-1,2.736653E-1,2.736653E-1,5.5021185E-1,5.7180744E-1,8.097235E-1,8.097235E-1,9.923088E-1,1.0421978E0,1.2497548E0,1.2497548E0,1.3963312E0,1.4991747E0,1.724852E0],"split_indices":[3,4,2,5,9,6,0,9,0,5,5,2,9,5,2,8,4,2,9,8,2,0,0,8,8,2,0,2,2,5,5,0,0,0,0,0,0,0,0,0,0,0,0,0,0,0,0,0,0,0,0,0,0,0,0,0,0,0,0,0,0,0,0],"split_type":[0,0,0,0,0,0,0,0,0,0,0,0,0,0,0,0,0,0,0,0,0,0,0,0,0,0,0,0,0,0,0,0,0,0,0,0,0,0,0,0,0,0,0,0,0,0,0,0,0,0,0,0,0,0,0,0,0,0,0,0,0,0,0],"sum_hessian":[2.5482E4,1.2303E4,1.3179E4,6.258E3,6.045E3,8.093E3,5.086E3,3.705E3,2.553E3,3.084E3,2.961E3,2.965E3,5.128E3,2.049E3,3.037E3,1.53E3,2.175E3,1.048E3,1.505E3,9.56E2,2.128E3,5.15E2,2.446E3,2.331E3,6.34E2,2.339E3,2.789E3,1.164E3,8.85E2,1.055E3,1.982E3,7.31E2,7.99E2,1.298E3,8.77E2,6.27E2,4.21E2,1.81E2,1.324E3,8.76E2,8E1,7.51E2,1.377E3,3.43E2,1.72E2,4.73E2,1.973E3,1.807E3,5.24E2,2.33E2,4.01E2,1.659E3,6.8E2,1.108E3,1.681E3,9.93E2,1.71E2,5.22E2,3.63E2,2.78E2,7.77E2,1.87E2,1.795E3],"tree_param":{"num_deleted":"0","num_feature":"10","num_nodes":"63","size_leaf_vector":"1"}},{"base_weights":[9.737571E-2,-1.4010634E1,1.3344769E1,-2.3173986E1,-3.640868E0,5.77058E0,2.3529348E1,-2.8672516E1,-1.5141824E1,-9.368775E0,-3.3293295E-1,-3.3293295E-1,1.1527875E1,1.5715458E1,2.9431849E1,-3.433259E1,-2.4830029E1,-1.9095865E1,-1.3407427E1,-1.3407427E1,-5.8220387E0,-4.850854E0,-3.3293295E-1,-1.6646648E-2,2.7897446E0,5.597471E0,1.4649964E1,1.4649964E1,2.2573654E1,2.4140068E1,3.2272205E1,-1.8395321E0,-1.4790654E0,-1.39736E0,-1.0953585E0,-1.0953585E0,-8.125823E-1,-8.125823E-1,-6.7037135E-1,-6.7037135E-1,-4.8073664E-1,-4.8073664E-1,-2.425427E-1,-2.425427E-1,-1.2959467E-1,-1.2428303E-1,-1.6646648E-2,6.142029E-2,2.7987358E-1,2.7987358E-1,4.1637698E-1,5.472136E-1,7.324982E-1,7.324982E-1,9.3059045E-1,9.3059045E-1,1.1286827E0,1.1286827E0,1.2868323E0,1.4103068E0,1.6491117E0],"categories":[],"categories_nodes":[],"categories_segments":[],"categories_sizes":[],"default_left":[0,0,0,0,0,0,0,0,0,0,0,0,0,0,0,0,0,0,0,0,0,0,0,0,0,0,0,0,0,0,0,0,0,0,0,0,0,0,0,0,0,0,0,0,0,0,0,0,0,0,0,0,0,0,0,0,0,0,0,0,0],"id":3,"left_children":[1,3,5,7,9,11,13,15,17,19,21,23,25,27,29,31,33,35,37,39,41,43,45,-1,47,49,51,53,55,57,59,-1,-1,-1,-1,-1,-1,-1,-1,-1,-1,-1,-1,-1,-1,-1,-1,-1,-1,-1,-1,-1,-1,-1,-1,-1,-1,-1,-1,-1,-1],"loss_changes":[4.7762725E6,1.175906E6,1.016568E6,2.8973E5,1.9339853E5,3.6211416E5,2.5878675E5,8.394625E4,3.34925E4,4.9815094E4,6.4118545E3,1.2042516E4,1.25889875E5,3.2645688E4,4.73335E4,2.44025E4,2.889925E4,1.137525E4,3.7795469E3,9.111969E3,1.6874043E4,1.5712549E3,1.7099224E3,0E0,1.2460498E4,3.3002793E3,2.1001625E4,7.6243438E3,1.8695E3,4.10075E3,6.08125E3,0E0,0E0,0E0,0E0,0E0,0E0,0E0,0E0,0E0,0E0,0E0,0E0,0E0,0E0,0E0,0E0,0E0,0E0,0E0,0E0,0E0,0E0,0E0,0E0,0E0,0E0,0E0,0E0,0E0,0E0],"parents":[2147483647,0,0,1,1,2,2,3,3,4,4,5,5,6,6,7,7,8,8,9,9,10,10,11,11,12,12,13,13,14,14,15,15,16,16,17,17,18,18,19,19,20,20,21,21,22,22,24,24,25,25,26,26,27,27,28,28,29,29,30,30],"right_children":[2,4,6,8,10,12,14,16,18,20,22,24,26,28,30,32,34,36,38,40,42,44,46,-1,48,50,52,54,56,58,60,-1,-1,-1,-1,-1,-1,-1,-1,-1,-1,-1,-1,-1,-1,-1,-1,-1,-1,-1,-1,-1,-1,-1,-1,-1,-1,-1,-1,-1,-1],"split_conditions":[2E0,3E0,3E0,2E0,3E0,3E0,4E0,1E0,2E0,2E0,2E0,4E0,4E0,4E0,4E0,2E0,2E0,2E0,2E0,3E0,2E0,4E0,1E0,-1.6646648E-2,3E0,3E0,4E0,4E0,3E0,4E0,4E0,-1.8395321E0,-1.4790654E0,-1.39736E0,-1.0953585E0,-1.0953585E0,-8.125823E-1,-8.125823E-1,-6.7037135E-1,-6.7037135E-1,-4.8073664E-1,-4.8073664E-1,-2.425427E-1,-2.425427E-1,-1.2959467E-1,-1.2428303E-1,-1.6646648E-2,6.142029E-2,2.7987358E-1,2.7987358E-1,4.1637698E-1,5.472136E-1,7.324982E-1,7.324982E-1,9.3059045E-1,9.3059045E-1,1.1286827E0,1.1286827E0,1.2868323E0,1.4103068E0,1.6491117E0],"split_indices":[1,6,2,3,3,3,3,9,9,9,0,4,6,0,7,4,4,4,0,0,0,3,9,0,0,7,0,2,1,0,0,0,0,0,0,0,0,0,0,0,0,0,0,0,0,0,0,0,0,0,0,0,0,0,0,0,0,0,0,0,0],"split_type":[0,0,0,0,0,0,0,0,0,0,0,0,0,0,0,0,0,0,0,0,0,0,0,0,0,0,0,0,0,0,0,0,0,0,0,0,0,0,0,0,0,0,0,0,0,0,0,0,0,0,0,0,0,0,0,0,0,0,0,0,0],"sum_hessian":[2.5554E4,1.2375E4,1.3179E4,6.569E3,5.806E3,7.559E3,5.62E3,3.898E3,2.671E3,3.146E3,2.66E3,2.984E3,4.575E3,2.42E3,3.2E3,1.573E3,2.325E3,1.288E3,1.383E3,1.386E3,1.76E3,2.97E2,2.363E3,1.75E3,1.234E3,1.338E3,3.237E3,1.893E3,5.27E2,1.121E3,2.079E3,1.169E3,4.04E2,1.349E3,9.76E2,6.22E2,6.66E2,3.43E2,1.04E3,1.072E3,3.14E2,4.7E2,1.29E3,1.89E2,1.08E2,3.68E2,1.995E3,7.52E2,4.82E2,8.92E2,4.46E2,1.544E3,1.693E3,1.543E3,3.5E2,6.2E1,4.65E2,3.86E2,7.35E2,2.71E2,1.808E3],"tree_param":{"num_deleted":"0","num_feature":"10","num_nodes":"61","size_leaf_vector":"1"}},{"base_weights":[2.4425127E-3,-1.3292604E1,1.3052738E1,-2.483139E1,-5.829375E0,4.6005764E0,2.2133373E1,-2.9671444E1,-1.7144957E1,-1.1637817E1,-1.1993313E-1,-1.1993313E-1,9.081963E0,1.45369E1,2.6949112E1,-3.3219467E1,-2.34082E1,-2.1237055E1,-1.5330382E1,-1.4270626E1,-5.8788753E0,-5.8788753E0,-1.1993313E-1,-1.1993313E-1,3.6248837E0,4.4810147E0,1.1451581E1,1.3366975E1,1.9191734E1,2.253469E1,2.9135252E1,-1.8485657E0,-1.4653774E0,-1.3974808E0,-1.17041E0,-1.17041E0,-9.1418594E-1,-8.498775E-1,-7.665191E-1,-7.665191E-1,-5.0373757E-1,-4.897091E-1,-2.9394376E-1,-2.9394376E-1,-1.4997022E-1,-1.4997022E-1,-5.9966566E-3,-5.9966566E-3,8.762377E-2,8.762377E-2,2.2405075E-1,2.2405075E-1,3.257922E-1,3.9831492E-1,6.683487E-1,6.683487E-1,8.070826E-1,8.139677E-1,1.0371503E0,1.0371503E0,1.2077626E0,1.2917486E0,1.5052927E0],"categories":[],"categories_nodes":[],"categories_segments":[],"categories_sizes":[],"default_left":[0,0,0,0,0,0,0,0,0,0,0,0,0,0,0,0,0,0,0,0,0,0,0,0,0,0,0,0,0,0,0,0,0,0,0,0,0,0,0,0,0,0,0,0,0,0,0,0,0,0,0,0,0,0,0,0,0,0,0,0,0,0,0],"id":4,"left_children":[1,3,5,7,9,11,13,15,17,19,21,23,25,27,29,31,33,35,37,39,41,43,45,47,49,51,53,55,57,59,61,-1,-1,-1,-1,-1,-1,-1,-1,-1,-1,-1,-1,-1,-1,-1,-1,-1,-1,-1,-1,-1,-1,-1,-1,-1,-1,-1,-1,-1,-1,-1,-1],"loss_changes":[4.4262685E6,1.0881105E6,9.8799025E5,1.8412825E5,3.3365644E5,1.948346E5,2.2664075E5,7.1986E4,2.7738562E4,8.019825E4,2.5920676E4,1.1415239E4,6.6542625E4,3.08915E4,3.598625E4,2.818225E4,5.7425E3,7.877375E3,5.182031E2,3.8370438E4,2.9700488E3,1.1385977E3,5.359634E3,2.0603008E3,7.659536E3,1.1558291E3,3.316422E4,1.8153125E3,8.197125E3,5.287375E3,1.302525E4,0E0,0E0,0E0,0E0,0E0,0E0,0E0,0E0,0E0,0E0,0E0,0E0,0E0,0E0,0E0,0E0,0E0,0E0,0E0,0E0,0E0,0E0,0E0,0E0,0E0,0E0,0E0,0E0,0E0,0E0,0E0,0E0],"parents":[2147483647,0,0,1,1,2,2,3,3,4,4,5,5,6,6,7,7,8,8,9,9,10,10,11,11,12,12,13,13,14,14,15,15,16,16,17,17,18,18,19,19,20,20,21,21,22,22,23,23,24,24,25,25,26,26,27,27,28,28,29,29,30,30],"right_children":[2,4,6,8,10,12,14,16,18,20,22,24,26,28,30,32,34,36,38,40,42,44,46,48,50,52,54,56,58,60,62,-1,-1,-1,-1,-1,-1,-1,-1,-1,-1,-1,-1,-1,-1,-1,-1,-1,-1,-1,-1,-1,-1,-1,-1,-1,-1,-1,-1,-1,-1,-1,-1],"split_conditions":[4E0,2E0,3E0,2E0,2E0,3E0,4E0,2E0,1E0,3E0,2E0,2E0,3E0,4E0,4E0,1E0,1E0,2E0,2E0,3E0,2E0,3E0,2E0,4E0,3E0,2E0,1E0,4E0,3E0,4E0,4E0,-1.8485657E0,-1.4653774E0,-1.3974808E0,-1.17041E0,-1.17041E0,-9.1418594E-1,-8.498775E-1,-7.665191E-1,-7.665191E-1,-5.0373757E-1,-4.897091E-1,-2.9394376E-1,-2.9394376E-1,-1.4997022E-1,-1.4997022E-1,-5.9966566E-3,-5.9966566E-3,8.762377E-2,8.762377E-2,2.2405075E-1,2.2405075E-1,3.257922E-1,3.9831492E-1,6.683487E-1,6.683487E-1,8.070826E-1,8.139677E-1,1.0371503E0,1.0371503E0,1.2077626E0,1.2917486E0,1.5052927E0],"split_indices":[4,5,7,0,1,0,3,4,1,0,3,7,5,5,7,9,9,3,9,4,3,7,0,3,5,7,1,0,0,0,5,0,0,0,0,0,0,0,0,0,0,0,0,0,0,0,0,0,0,0,0,0,0,0,0,0,0,0,0,0,0,0,0],"split_type":[0,0,0,0,0,0,0,0,0,0,0,0,0,0,0,0,0,0,0,0,0,0,0,0,0,0,0,0,0,0,0,0,0,0,0,0,0,0,0,0,0,0,0,0,0,0,0,0,0,0,0,0,0,0,0,0,0,0,0,0,0,0,0],"sum_hessian":[2.5509E4,1.2636E4,1.2873E4,4.962E3,7.674E3,6.668E3,6.205E3,3.043E3,1.919E3,4.4E3,3.274E3,2.613E3,4.055E3,2.409E3,3.796E3,1.993E3,1.05E3,9.82E2,9.37E2,3.211E3,1.189E3,4.23E2,2.851E3,1.8E3,8.13E2,9.19E2,3.136E3,1.397E3,1.012E3,1.261E3,2.535E3,1.013E3,9.8E2,3.04E2,7.46E2,5.21E2,4.61E2,2.7E2,6.67E2,2.106E3,1.105E3,1.95E2,9.94E2,3.25E2,9.8E1,2.09E2,2.642E3,1.537E3,2.63E2,3.2E2,4.93E2,6.36E2,2.83E2,7.81E2,2.355E3,1.139E3,2.58E2,2.19E2,7.93E2,4.23E2,8.38E2,2.71E2,2.264E3],"tree_param":{"num_deleted":"0","num_feature":"10","num_nodes":"63","size_leaf_vector":"1"}},{"base_weights":[-7.9565026E-2,-1.4299829E1,1.1181938E1,-2.2352142E1,-5.979139E0,2.9764247E0,2.0674164E1,-2.7163454E1,-1.4482286E1,-1.1051949E1,-1.5589452E0,-1.5589452E0,7.8074937E0,1.6357933E1,2.8167948E1,-3.277442E1,-2.3755205E1,-1.9029694E1,-1.4165641E1,-1.4165641E1,-7.0121465E0,-6.3054466E0,-1.5589452E0,-1.5589452E0,3.1242743E0,3.1242743E0,1.18252945E1,1.2669672E1,2.1598217E1,2.247159E1,3.0197493E1,-1.8458376E0,-1.4815849E0,-1.3179861E0,-1.0411435E0,-1.0411435E0,-8.298834E-1,-8.298834E-1,-7.0828205E-1,-7.0828205E-1,-5.320761E-1,-5.294447E-1,-3.1527233E-1,-3.1527233E-1,-1.966098E-1,-1.9231936E-1,-7.794726E-2,-7.794726E-2,1.6617825E-2,3.913323E-2,1.5621372E-1,1.5621372E-1,3.737392E-1,4.4287482E-1,5.912647E-1,5.912647E-1,7.5573707E-1,8.5669726E-1,1.113147E0,1.113147E0,1.2021941E0,1.316727E0,1.5358107E0],"categories":[],"categories_nodes":[],"categories_segments":[],"categories_sizes":[],"default_left":[0,0,0,0,0,0,0,0,0,0,0,0,0,0,0,0,0,0,0,0,0,0,0,0,0,0,0,0,0,0,0,0,0,0,0,0,0,0,0,0,0,0,0,0,0,0,0,0,0,0,0,0,0,0,0,0,0,0,0,0,0,0,0],"id":5,"left_children":[1,3,5,7,9,11,13,15,17,19,21,23,25,27,29,31,33,35,37,39,41,43,45,47,49,51,53,55,57,59,61,-1,-1,-1,-1,-1,-1,-1,-1,-1,-1,-1,-1,-1,-1,-1,-1,-1,-1,-1,-1,-1,-1,-1,-1,-1,-1,-1,-1,-1,-1,-1,-1],"loss_changes":[4.083769E6,7.5496575E5,1.1083714E6,2.164555E5,1.7843095E5,2.2099866E5,2.129505E5,6.716775E4,2.2719719E4,4.4070844E4,7.394507E3,3.6823008E4,9.306056E4,8.0689375E4,2.7183375E4,1.635025E4,2.4766625E4,1.0624281E4,1.6367422E3,9.039375E3,8.452023E3,1.6022432E3,1.2376455E3,1.4641523E3,1.3425254E3,1.5081143E4,1.046475E4,1.4736656E4,1.47465625E4,9.229375E2,3.30325E3,0E0,0E0,0E0,0E0,0E0,0E0,0E0,0E0,0E0,0E0,0E0,0E0,0E0,0E0,0E0,0E0,0E0,0E0,0E0,0E0,0E0,0E0,0E0,0E0,0E0,0E0,0E0,0E0,0E0,0E0,0E0,0E0],"parents":[2147483647,0,0,1,1,2,2,3,3,4,4,5,5,6,6,7,7,8,8,9,9,10,10,11,11,12,12,13,13,14,14,15,15,16,16,17,17,18,18,19,19,20,20,21,21,22,22,23,23,24,24,25,25,26,26,27,27,28,28,29,29,30,30],"right_children":[2,4,6,8,10,12,14,16,18,20,22,24,26,28,30,32,34,36,38,40,42,44,46,48,50,52,54,56,58,60,62,-1,-1,-1,-1,-1,-1,-1,-1,-1,-1,-1,-1,-1,-1,-1,-1,-1,-1,-1,-1,-1,-1,-1,-1,-1,-1,-1,-1,-1,-1,-1,-1],"split_conditions":[3E0,2E0,3E0,2E0,2E0,3E0,4E0,1E0,1E0,2E0,2E0,2E0,1E0,4E0,4E0,1E0,1E0,2E0,1E0,2E0,2E0,3E0,1E0,2E0,2E0,3E0,4E0,3E0,1E0,3E0,4E0,-1.8458376E0,-1.4815849E0,-1.3179861E0,-1.0411435E0,-1.0411435E0,-8.298834E-1,-8.298834E-1,-7.0828205E-1,-7.0828205E-1,-5.320761E-1,-5.294447E-1,-3.1527233E-1,-3.1527233E-1,-1.966098E-1,-1.9231936E-1,-7.794726E-2,-7.794726E-2,1.6617825E-2,3.913323E-2,1.5621372E-1,1.5621372E-1,3.737392E-1,4.4287482E-1,5.912647E-1,5.912647E-1,7.5573707E-1,8.5669726E-1,1.113147E0,1.113147E0,1.2021941E0,1.316727E0,1.5358107E0],"split_indices":[5,8,7,9,1,8,2,5,2,9,3,2,2,8,8,0,2,0,3,5,0,0,7,7,3,1,3,8,2,8,7,0,0,0,0,0,0,0,0,0,0,0,0,0,0,0,0,0,0,0,0,0,0,0,0,0,0,0,0,0,0,0,0],"split_type":[0,0,0,0,0,0,0,0,0,0,0,0,0,0,0,0,0,0,0,0,0,0,0,0,0,0,0,0,0,0,0,0,0,0,0,0,0,0,0,0,0,0,0,0,0,0,0,0,0,0,0,0,0,0,0,0,0,0,0,0,0,0,0],"sum_hessian":[2.5499E4,1.1269E4,1.423E4,5.726E3,5.543E3,7.633E3,6.597E3,3.552E3,2.174E3,3.181E3,2.362E3,3.325E3,4.308E3,4.188E3,2.409E3,1.339E3,2.213E3,9.77E2,1.197E3,1.714E3,1.467E3,2.8E2,2.082E3,2.431E3,8.94E2,2.105E3,2.203E3,2.46E3,1.728E3,6.36E2,1.773E3,5.73E2,7.66E2,1.442E3,7.71E2,5.37E2,4.4E2,1.85E2,1.012E3,9.71E2,7.43E2,2.71E2,1.196E3,1.78E2,1.02E2,2.36E2,1.846E3,2.022E3,4.09E2,1.47E2,7.47E2,1.508E3,5.97E2,1.203E3,1E3,9.24E2,1.536E3,4.68E2,1.26E3,1.81E2,4.55E2,1.87E2,1.586E3],"tree_param":{"num_deleted":"0","num_feature":"10","num_nodes":"63","size_leaf_vector":"1"}},{"base_weights":[-5.515631E-2,-1.2049372E1,1.1902533E1,-2.2444067E1,-5.4263563E0,5.491939E0,2.1630783E1,-2.6891146E1,-1.5477331E1,-1.0469823E1,-7.341957E-2,-7.341957E-2,9.746087E0,1.5573768E1,2.5662369E1,-3.018298E1,-2.1184238E1,-1.9163818E1,-1.3935211E1,-1.3414658E1,-5.271621E0,-5.271621E0,-7.341957E-2,-7.341957E-2,4.2862797E0,5.095648E0,1.3561361E1,1.3561361E1,1.9328905E1,2.1133726E1,2.8020094E1,-1.6741844E0,-1.3378519E0,-1.2497679E0,-1.059212E0,-1.0281388E0,-8.274757E-1,-7.5164825E-1,-6.967606E-1,-6.967606E-1,-4.6715698E-1,-4.6619153E-1,-2.6358107E-1,-2.6358107E-1,-1.3362603E-1,-8.2243204E-2,-3.6709786E-3,-3.6709786E-3,1.05321504E-1,1.05321504E-1,2.4181668E-1,2.4181668E-1,4.2804596E-1,4.7366238E-1,6.780681E-1,6.780681E-1,7.554751E-1,8.222567E-1,1.0309035E0,1.0309035E0,1.1327403E0,1.2288455E0,1.4387026E0],"categories":[],"categories_nodes":[],"categories_segments":[],"categories_sizes":[],"default_left":[0,0,0,0,0,0,0,0,0,0,0,0,0,0,0,0,0,0,0,0,0,0,0,0,0,0,0,0,0,0,0,0,0,0,0,0,0,0,0,0,0,0,0,0,0,0,0,0,0,0,0,0,0,0,0,0,0,0,0,0,0,0,0],"id":6,"left_children":[1,3,5,7,9,11,13,15,17,19,21,23,25,27,29,31,33,35,37,39,41,43,45,47,49,51,53,55,57,59,61,-1,-1,-1,-1,-1,-1,-1,-1,-1,-1,-1,-1,-1,-1,-1,-1,-1,-1,-1,-1,-1,-1,-1,-1,-1,-1,-1,-1,-1,-1,-1,-1],"loss_changes":[3.6674722E6,8.787436E5,7.984505E5,1.535005E5,2.955532E5,2.3682925E5,1.2379725E5,6.157525E4,2.2617438E4,9.0892375E4,1.7812043E4,1.3970125E4,9.323319E4,2.5138688E4,3.1995125E4,2.15505E4,3.792375E3,5.2244375E3,1.7936719E2,3.0941812E4,3.2234531E3,7.84666E2,1.992831E3,8.834553E2,6.532506E3,1.6843148E4,1.8734781E4,4.6082812E2,5.9937188E3,2.4651875E3,7.540375E3,0E0,0E0,0E0,0E0,0E0,0E0,0E0,0E0,0E0,0E0,0E0,0E0,0E0,0E0,0E0,0E0,0E0,0E0,0E0,0E0,0E0,0E0,0E0,0E0,0E0,0E0,0E0,0E0,0E0,0E0,0E0,0E0],"parents":[2147483647,0,0,1,1,2,2,3,3,4,4,5,5,6,6,7,7,8,8,9,9,10,10,11,11,12,12,13,13,14,14,15,15,16,16,17,17,18,18,19,19,20,20,21,21,22,22,23,23,24,24,25,25,26,26,27,27,28,28,29,29,30,30],"right_children":[2,4,6,8,10,12,14,16,18,20,22,24,26,28,30,32,34,36,38,40,42,44,46,48,50,52,54,56,58,60,62,-1,-1,-1,-1,-1,-1,-1,-1,-1,-1,-1,-1,-1,-1,-1,-1,-1,-1,-1,-1,-1,-1,-1,-1,-1,-1,-1,-1,-1,-1,-1,-1],"split_conditions":[4E0,2E0,3E0,2E0,2E0,3E0,4E0,2E0,1E0,3E0,2E0,2E0,2E0,4E0,4E0,1E0,1E0,3E0,2E0,3E0,1E0,3E0,3E0,4E0,3E0,4E0,4E0,4E0,3E0,4E0,4E0,-1.6741844E0,-1.3378519E0,-1.2497679E0,-1.059212E0,-1.0281388E0,-8.274757E-1,-7.5164825E-1,-6.967606E-1,-6.967606E-1,-4.6715698E-1,-4.6619153E-1,-2.6358107E-1,-2.6358107E-1,-1.3362603E-1,-8.2243204E-2,-3.6709786E-3,-3.6709786E-3,1.05321504E-1,1.05321504E-1,2.4181668E-1,2.4181668E-1,4.2804596E-1,4.7366238E-1,6.780681E-1,6.780681E-1,7.554751E-1,8.222567E-1,1.0309035E0,1.0309035E0,1.1327403E0,1.2288455E0,1.4387026E0],"split_indices":[6,5,2,0,7,0,0,4,1,0,0,2,7,5,7,9,9,4,4,4,9,2,9,7,5,5,5,1,1,5,5,0,0,0,0,0,0,0,0,0,0,0,0,0,0,0,0,0,0,0,0,0,0,0,0,0,0,0,0,0,0,0,0],"split_type":[0,0,0,0,0,0,0,0,0,0,0,0,0,0,0,0,0,0,0,0,0,0,0,0,0,0,0,0,0,0,0,0,0,0,0,0,0,0,0,0,0,0,0,0,0,0,0,0,0,0,0,0,0,0,0,0,0,0,0,0,0,0,0],"sum_hessian":[2.5569E4,1.2765E4,1.2804E4,4.967E3,7.798E3,7.719E3,5.085E3,3.03E3,1.937E3,4.801E3,2.997E3,2.784E3,4.935E3,2.034E3,3.051E3,1.984E3,1.046E3,1.002E3,9.35E2,3.327E3,1.474E3,3.37E2,2.66E3,2.05E3,7.34E2,2.305E3,2.63E3,1.026E3,1.008E3,1.048E3,2.003E3,1.006E3,9.78E2,2.91E2,7.55E2,7.66E2,2.36E2,3.09E2,6.26E2,2.194E3,1.133E3,1.97E2,1.277E3,3E2,3.7E1,8.06E2,1.854E3,1.968E3,8.2E1,3.06E2,4.28E2,1.079E3,1.226E3,1.131E3,1.499E3,7.58E2,2.68E2,1.95E2,8.13E2,2.85E2,7.63E2,1.93E2,1.81E3],"tree_param":{"num_deleted":"0","num_feature":"10","num_nodes":"63","size_leaf_vector":"1"}},{"base_weights":[-8.828617E-2,-1.1637463E1,1.1209478E1,-1.9797632E1,-3.0456402E0,3.5786364E0,1.9190512E1,-2.4276915E1,-1.36346445E1,-7.7124767E0,-2.1399212E-1,-2.1399212E-1,7.950348E0,1.2871835E1,2.2428589E1,-2.991631E1,-2.1344646E1,-1.7874876E1,-1.1421637E1,-1.1421637E1,-4.518348E0,-3.9632344E0,-2.1399212E-1,-2.1399212E-1,3.2637913E0,4.053779E0,1.1384574E1,1.1384574E1,1.6467793E1,1.8519571E1,2.455668E1,-1.6706276E0,-1.3400849E0,-1.1955893E0,-9.47789E-1,-9.47789E-1,-7.324128E-1,-7.2075903E-1,-5.710818E-1,-5.710818E-1,-4.187215E-1,-3.919962E-1,-1.9816172E-1,-1.9816172E-1,-1.0443067E-1,-1.0443067E-1,-1.06996065E-2,-1.06996065E-2,5.005474E-2,7.624498E-2,1.9340889E-1,1.9340889E-1,3.8595882E-1,3.8595882E-1,5.692287E-1,5.692287E-1,6.963092E-1,6.963092E-1,8.825106E-1,8.825106E-1,9.9670786E-1,1.0769063E0,1.2618204E0],"categories":[],"categories_nodes":[],"categories_segments":[],"categories_sizes":[],"default_left":[0,0,0,0,0,0,0,0,0,0,0,0,0,0,0,0,0,0,0,0,0,0,0,0,0,0,0,0,0,0,0,0,0,0,0,0,0,0,0,0,0,0,0,0,0,0,0,0,0,0,0,0,0,0,0,0,0,0,0,0,0,0,0],"id":7,"left_children":[1,3,5,7,9,11,13,15,17,19,21,23,25,27,29,31,33,35,37,39,41,43,45,47,49,51,53,55,57,59,61,-1,-1,-1,-1,-1,-1,-1,-1,-1,-1,-1,-1,-1,-1,-1,-1,-1,-1,-1,-1,-1,-1,-1,-1,-1,-1,-1,-1,-1,-1,-1,-1],"loss_changes":[3.331803E6,8.8522825E5,7.8605425E5,1.78444E5,1.4639894E5,1.717578E5,1.287955E5,6.135575E4,3.302603E4,5.682028E4,9.951733E3,8.551103E3,5.419892E4,1.1493E4,3.423475E4,1.3043E4,2.418125E4,1.00360625E4,4.5832188E3,3.2772969E3,1.5988242E4,5.392783E2,1.5694526E3,2.730952E2,3.1997188E3,1.3850641E4,1.7149688E4,3.084625E3,4.5216562E3,3.53E3,9.853E3,0E0,0E0,0E0,0E0,0E0,0E0,0E0,0E0,0E0,0E0,0E0,0E0,0E0,0E0,0E0,0E0,0E0,0E0,0E0,0E0,0E0,0E0,0E0,0E0,0E0,0E0,0E0,0E0,0E0,0E0,0E0,0E0],"parents":[2147483647,0,0,1,1,2,2,3,3,4,4,5,5,6,6,7,7,8,8,9,9,10,10,11,11,12,12,13,13,14,14,15,15,16,16,17,17,18,18,19,19,20,20,21,21,22,22,23,23,24,24,25,25,26,26,27,27,28,28,29,29,30,30],"right_children":[2,4,6,8,10,12,14,16,18,20,22,24,26,28,30,32,34,36,38,40,42,44,46,48,50,52,54,56,58,60,62,-1,-1,-1,-1,-1,-1,-1,-1,-1,-1,-1,-1,-1,-1,-1,-1,-1,-1,-1,-1,-1,-1,-1,-1,-1,-1,-1,-1,-1,-1,-1,-1],"split_conditions":[3E0,3E0,3E0,2E0,2E0,4E0,4E0,1E0,2E0,2E0,2E0,2E0,4E0,4E0,4E0,1E0,1E0,2E0,2E0,3E0,3E0,3E0,2E0,4E0,3E0,2E0,1E0,4E0,3E0,4E0,4E0,-1.6706276E0,-1.3400849E0,-1.1955893E0,-9.47789E-1,-9.47789E-1,-7.324128E-1,-7.2075903E-1,-5.710818E-1,-5.710818E-1,-4.187215E-1,-3.919962E-1,-1.9816172E-1,-1.9816172E-1,-1.0443067E-1,-1.0443067E-1,-1.06996065E-2,-1.06996065E-2,5.005474E-2,7.624498E-2,1.9340889E-1,1.9340889E-1,3.8595882E-1,3.8595882E-1,5.692287E-1,5.692287E-1,6.963092E-1,6.963092E-1,8.825106E-1,8.825106E-1,9.9670786E-1,1.0769063E0,1.2618204E0],"split_indices":[0,4,7,5,7,6,5,3,9,3,5,7,5,3,7,6,7,6,3,5,5,3,3,1,6,7,1,1,5,0,6,0,0,0,0,0,0,0,0,0,0,0,0,0,0,0,0,0,0,0,0,0,0,0,0,0,0,0,0,0,0,0,0],"split_type":[0,0,0,0,0,0,0,0,0,0,0,0,0,0,0,0,0,0,0,0,0,0,0,0,0,0,0,0,0,0,0,0,0,0,0,0,0,0,0,0,0,0,0,0,0,0,0,0,0,0,0,0,0,0,0,0,0,0,0,0,0,0,0],"sum_hessian":[2.5533E4,1.2626E4,1.2907E4,6.475E3,6.151E3,6.599E3,6.308E3,3.748E3,2.727E3,3.48E3,2.671E3,2.599E3,4E3,2.139E3,4.169E3,1.279E3,2.469E3,1.116E3,1.611E3,1.281E3,2.199E3,3.3E2,2.341E3,1.893E3,7.06E2,1.888E3,2.112E3,1.507E3,6.32E2,1.473E3,2.696E3,5.98E2,6.81E2,1.572E3,8.97E2,5.22E2,5.94E2,5.25E2,1.086E3,9.15E2,3.66E2,1.109E3,1.09E3,2.77E2,5.3E1,4.04E2,1.937E3,1.709E3,1.84E2,2.44E2,4.62E2,1.169E3,7.19E2,5.53E2,1.559E3,1.211E3,2.96E2,1.68E2,4.64E2,5.24E2,9.49E2,1.46E2,2.55E3],"tree_param":{"num_deleted":"0","num_feature":"10","num_nodes":"63","size_leaf_vector":"1"}},{"base_weights":[-3.2699175E-2,-1.1299333E1,1.0632649E1,-1.8932652E1,-3.1344113E0,3.3848743E0,1.841426E1,-2.3114662E1,-1.2968788E1,-7.6907473E0,-3.333416E-1,-3.333416E-1,7.5380983E0,1.2467338E1,2.125095E1,-2.5985632E1,-1.8041725E1,-1.6959427E1,-1.1033531E1,-1.0566792E1,-4.0120444E0,-4.0120444E0,-3.333416E-1,-3.333416E-1,3.06105E0,3.7221057E0,1.0899568E1,1.0980382E1,1.5529566E1,1.7349508E1,2.3327374E1,-1.5454938E0,-1.1899406E0,-1.100684E0,-9.0208626E-1,-9.0208626E-1,-6.99824E-1,-6.713434E-1,-5.516766E-1,-5.516766E-1,-3.6567387E-1,-3.6447093E-1,-2.0060222E-1,-2.0060222E-1,-1.0863465E-1,-1.0343772E-1,-1.6667081E-2,-1.6667081E-2,5.6096394E-2,6.819271E-2,1.8011892E-1,1.8011892E-1,3.6554185E-1,3.6554185E-1,5.449784E-1,5.449784E-1,6.6274875E-1,6.6274875E-1,8.429572E-1,8.429572E-1,9.6186733E-1,1.016922E0,1.2011498E0],"categories":[],"categories_nodes":[],"categories_segments":[],"categories_sizes":[],"default_left":[0,0,0,0,0,0,0,0,0,0,0,0,0,0,0,0,0,0,0,0,0,0,0,0,0,0,0,0,0,0,0,0,0,0,0,0,0,0,0,0,0,0,0,0,0,0,0,0,0,0,0,0,0,0,0,0,0,0,0,0,0,0,0],"id":8,"left_children":[1,3,5,7,9,11,13,15,17,19,21,23,25,27,29,31,33,35,37,39,41,43,45,47,49,51,53,55,57,59,61,-1,-1,-1,-1,-1,-1,-1,-1,-1,-1,-1,-1,-1,-1,-1,-1,-1,-1,-1,-1,-1,-1,-1,-1,-1,-1,-1,-1,-1,-1,-1,-1],"loss_changes":[3.0724368E6,7.7489525E5,7.407436E5,1.59971E5,1.316494E5,1.6513822E5,1.0658675E5,6.0579625E4,3.412597E4,4.4479625E4,8.996994E3,7.512163E3,5.5647484E4,9.1548125E3,3.4324125E4,2.6239375E4,6.2210938E3,9.70925E3,2.7537266E3,1.3071078E4,4.4588438E3,8.938379E2,1.0720391E3,3.916836E2,3.7141323E3,1.1357232E4,1.1257469E4,2.2594219E3,3.5564375E3,4.3169375E3,1.0660875E4,0E0,0E0,0E0,0E0,0E0,0E0,0E0,0E0,0E0,0E0,0E0,0E0,0E0,0E0,0E0,0E0,0E0,0E0,0E0,0E0,0E0,0E0,0E0,0E0,0E0,0E0,0E0,0E0,0E0,0E0,0E0,0E0],"parents":[2147483647,0,0,1,1,2,2,3,3,4,4,5,5,6,6,7,7,8,8,9,9,10,10,11,11,12,12,13,13,14,14,15,15,16,16,17,17,18,18,19,19,20,20,21,21,22,22,23,23,24,24,25,25,26,26,27,27,28,28,29,29,30,30],"right_children":[2,4,6,8,10,12,14,16,18,20,22,24,26,28,30,32,34,36,38,40,42,44,46,48,50,52,54,56,58,60,62,-1,-1,-1,-1,-1,-1,-1,-1,-1,-1,-1,-1,-1,-1,-1,-1,-1,-1,-1,-1,-1,-1,-1,-1,-1,-1,-1,-1,-1,-1,-1,-1],"split_conditions":[3E0,3E0,3E0,2E0,2E0,4E0,4E0,2E0,1E0,3E0,2E0,2E0,2E0,4E0,4E0,1E0,1E0,2E0,2E0,2E0,2E0,4E0,2E0,4E0,3E0,4E0,3E0,4E0,3E0,4E0,3E0,-1.5454938E0,-1.1899406E0,-1.100684E0,-9.0208626E-1,-9.0208626E-1,-6.99824E-1,-6.713434E-1,-5.516766E-1,-5.516766E-1,-3.6567387E-1,-3.6447093E-1,-2.0060222E-1,-2.0060222E-1,-1.0863465E-1,-1.0343772E-1,-1.6667081E-2,-1.6667081E-2,5.6096394E-2,6.819271E-2,1.8011892E-1,1.8011892E-1,3.6554185E-1,3.6554185E-1,5.449784E-1,5.449784E-1,6.6274875E-1,6.6274875E-1,8.429572E-1,8.429572E-1,9.6186733E-1,1.016922E0,1.2011498E0],"split_indices":[3,6,7,5,7,6,5,4,7,5,5,7,1,0,7,0,3,0,0,3,0,9,0,1,4,0,5,1,5,0,4,0,0,0,0,0,0,0,0,0,0,0,0,0,0,0,0,0,0,0,0,0,0,0,0,0,0,0,0,0,0,0,0],"split_type":[0,0,0,0,0,0,0,0,0,0,0,0,0,0,0,0,0,0,0,0,0,0,0,0,0,0,0,0,0,0,0,0,0,0,0,0,0,0,0,0,0,0,0,0,0,0,0,0,0,0,0,0,0,0,0,0,0,0,0,0,0,0,0],"sum_hessian":[2.5567E4,1.2433E4,1.3134E4,6.425E3,6.008E3,6.801E3,6.333E3,3.775E3,2.65E3,3.302E3,2.706E3,2.619E3,4.182E3,2.047E3,4.286E3,2.504E3,1.271E3,1.257E3,1.393E3,2.075E3,1.227E3,3.65E2,2.341E3,1.968E3,6.51E2,1.999E3,2.183E3,1.381E3,6.66E2,1.492E3,2.794E3,7.66E2,1.738E3,3E2,9.71E2,5.81E2,6.76E2,5.01E2,8.92E2,1.09E3,9.85E2,2.95E2,9.32E2,2.66E2,9.9E1,3.55E2,1.986E3,1.784E3,1.84E2,2.47E2,4.04E2,1.319E3,6.8E2,3.93E2,1.79E3,1.108E3,2.73E2,1.72E2,4.94E2,6.16E2,8.76E2,1.4E2,2.654E3],"tree_param":{"num_deleted":"0","num_feature":"10","num_nodes":"63","size_leaf_vector":"1"}},{"base_weights":[1.8396277E-2,-1.1780514E1,9.140614E0,-1.8257925E1,-3.8591719E0,3.4682093E0,1.802619E1,-2.1914494E1,-1.144839E1,-1.1058548E1,-1.3199501E0,-1.3199501E0,7.691902E0,1.2930724E1,2.2843218E1,-2.5298471E1,-1.6681442E1,-1.4814311E1,-1.1058548E1,-1.1058548E1,-6.189249E0,-5.592183E0,-1.3199501E0,-1.3199501E0,3.185976E0,3.185976E0,1.0710254E1,1.1271024E1,1.7511425E1,1.9339577E1,2.4547045E1,-1.4476706E0,-1.1370484E0,-1.0494978E0,-8.340721E-1,-8.2830423E-1,-6.468215E-1,-6.3007617E-1,-5.5292743E-1,-5.5292743E-1,-4.3119493E-1,-4.3119493E-1,-3.0946246E-1,-3.0946246E-1,-1.7280333E-1,-1.7280333E-1,-6.59975E-2,-6.59975E-2,4.6650648E-2,4.6650648E-2,1.592988E-1,1.592988E-1,3.0888304E-1,3.4740576E-1,5.3736E-1,5.3736E-1,6.7837256E-1,7.716958E-1,8.9434856E-1,8.9434856E-1,9.9680513E-1,1.0971655E0,1.2595562E0],"categories":[],"categories_nodes":[],"categories_segments":[],"categories_sizes":[],"default_left":[0,0,0,0,0,0,0,0,0,0,0,0,0,0,0,0,0,0,0,0,0,0,0,0,0,0,0,0,0,0,0,0,0,0,0,0,0,0,0,0,0,0,0,0,0,0,0,0,0,0,0,0,0,0,0,0,0,0,0,0,0,0,0],"id":9,"left_children":[1,3,5,7,9,11,13,15,17,19,21,23,25,27,29,31,33,35,37,39,41,43,45,47,49,51,53,55,57,59,61,-1,-1,-1,-1,-1,-1,-1,-1,-1,-1,-1,-1,-1,-1,-1,-1,-1,-1,-1,-1,-1,-1,-1,-1,-1,-1,-1,-1,-1,-1,-1,-1],"loss_changes":[2.7483888E6,5.712124E5,7.2578525E5,1.5225925E5,1.0605895E5,2.3286255E5,1.374265E5,7.2911875E4,1.5280094E4,8.4846875E3,2.410911E4,1.7395555E4,9.067106E4,2.0550156E4,1.67355E4,2.228975E4,7.5916875E3,5.7418906E3,2.2292578E2,1.7707031E3,5.3221436E2,9.632262E3,4.160243E3,6.302705E3,4.281128E3,5.180953E3,2.4279125E4,8.648E3,2.063125E3,1.2991562E3,3.55575E3,0E0,0E0,0E0,0E0,0E0,0E0,0E0,0E0,0E0,0E0,0E0,0E0,0E0,0E0,0E0,0E0,0E0,0E0,0E0,0E0,0E0,0E0,0E0,0E0,0E0,0E0,0E0,0E0,0E0,0E0,0E0,0E0],"parents":[2147483647,0,0,1,1,2,2,3,3,4,4,5,5,6,6,7,7,8,8,9,9,10,10,11,11,12,12,13,13,14,14,15,15,16,16,17,17,18,18,19,19,20,20,21,21,22,22,23,23,24,24,25,25,26,26,27,27,28,28,29,29,30,30],"right_children":[2,4,6,8,10,12,14,16,18,20,22,24,26,28,30,32,34,36,38,40,42,44,46,48,50,52,54,56,58,60,62,-1,-1,-1,-1,-1,-1,-1,-1,-1,-1,-1,-1,-1,-1,-1,-1,-1,-1,-1,-1,-1,-1,-1,-1,-1,-1,-1,-1,-1,-1,-1,-1],"split_conditions":[3E0,3E0,3E0,2E0,2E0,4E0,4E0,2E0,1E0,2E0,1E0,2E0,3E0,4E0,4E0,1E0,1E0,3E0,1E0,3E0,2E0,3E0,2E0,4E0,3E0,2E0,1E0,3E0,4E0,4E0,4E0,-1.4476706E0,-1.1370484E0,-1.0494978E0,-8.340721E-1,-8.2830423E-1,-6.468215E-1,-6.3007617E-1,-5.5292743E-1,-5.5292743E-1,-4.3119493E-1,-4.3119493E-1,-3.0946246E-1,-3.0946246E-1,-1.7280333E-1,-1.7280333E-1,-6.59975E-2,-6.59975E-2,4.6650648E-2,4.6650648E-2,1.592988E-1,1.592988E-1,3.0888304E-1,3.4740576E-1,5.3736E-1,5.3736E-1,6.7837256E-1,7.716958E-1,8.9434856E-1,8.9434856E-1,9.9680513E-1,1.0971655E0,1.2595562E0],"split_indices":[9,6,2,8,3,6,8,4,2,2,2,2,8,3,7,3,3,3,9,8,0,8,8,8,0,2,7,8,7,6,2,0,0,0,0,0,0,0,0,0,0,0,0,0,0,0,0,0,0,0,0,0,0,0,0,0,0,0,0,0,0,0,0],"split_type":[0,0,0,0,0,0,0,0,0,0,0,0,0,0,0,0,0,0,0,0,0,0,0,0,0,0,0,0,0,0,0,0,0,0,0,0,0,0,0,0,0,0,0,0,0,0,0,0,0,0,0,0,0,0,0,0,0,0,0,0,0,0,0],"sum_hessian":[2.5533E4,1.1133E4,1.44E4,6.124E3,5.009E3,8.79E3,5.61E3,3.983E3,2.141E3,1.309E3,3.7E3,3.442E3,5.348E3,2.728E3,2.882E3,2.454E3,1.529E3,1.114E3,1.027E3,1.094E3,2.15E2,1.32E3,2.38E3,2.624E3,8.18E2,1.829E3,3.519E3,2.005E3,7.23E2,9.47E2,1.935E3,1.006E3,1.448E3,3.35E2,1.194E3,7.46E2,3.68E2,1.44E2,8.83E2,1.009E3,8.5E1,6.9E1,1.46E2,7.77E2,5.43E2,4.32E2,1.948E3,2.167E3,4.57E2,4.11E2,4.07E2,1.25E3,5.79E2,9.88E2,2.531E3,8.35E2,1.17E3,4.12E2,3.11E2,8.6E1,8.61E2,3.09E2,1.626E3],"tree_param":{"num_deleted":"0","num_feature":"10","num_nodes":"63","size_leaf_vector":"1"}},{"base_weights":[7.374089E-2,-1.1186682E1,8.847682E0,-1.7264866E1,-3.9220278E0,1.3225163E0,1.5190261E1,-2.1322702E1,-1.1845173E1,-1.0593447E1,-1.1694999E0,-1.1694999E0,8.195927E0,1.20157175E1,2.2054909E1,-2.6466875E1,-1.8532042E1,-1.5302076E1,-1.0593447E1,-1.0593447E1,-5.8814735E0,-5.8814735E0,-1.1694999E0,-5.8474995E-2,2.2701426E0,4.1144276E0,8.256389E0,9.093638E0,1.5685887E1,1.7771187E1,2.3625969E1,-1.4592637E0,-1.1816036E0,-1.0484849E0,-8.2919693E-1,-8.2919693E-1,-6.473881E-1,-6.473881E-1,-5.296723E-1,-5.296723E-1,-4.11873E-1,-4.11873E-1,-2.9407367E-1,-2.9407367E-1,-1.7627434E-1,-1.7627434E-1,-5.8474995E-2,2.7516067E-2,1.7566067E-1,1.7566067E-1,3.092704E-1,3.092704E-1,4.1281945E-1,4.1281945E-1,5.8622736E-1,6.194882E-1,8.5176563E-1,8.5176563E-1,9.512496E-1,1.0349289E0,1.2010598E0],"categories":[],"categories_nodes":[],"categories_segments":[],"categories_sizes":[],"default_left":[0,0,0,0,0,0,0,0,0,0,0,0,0,0,0,0,0,0,0,0,0,0,0,0,0,0,0,0,0,0,0,0,0,0,0,0,0,0,0,0,0,0,0,0,0,0,0,0,0,0,0,0,0,0,0,0,0,0,0,0,0],"id":10,"left_children":[1,3,5,7,9,11,13,15,17,19,21,23,25,27,29,31,33,35,37,39,41,43,45,-1,47,49,51,53,55,57,59,-1,-1,-1,-1,-1,-1,-1,-1,-1,-1,-1,-1,-1,-1,-1,-1,-1,-1,-1,-1,-1,-1,-1,-1,-1,-1,-1,-1,-1,-1],"loss_changes":[2.5131322E6,4.9182888E5,6.823609E5,1.331305E5,9.834891E4,1.399817E5,1.6879812E5,4.928025E4,2.5791125E4,1.21479375E4,3.1506562E4,2.8215896E4,1.4884172E4,5.6772562E4,1.6082E4,8.68875E3,1.7341562E4,9.155875E3,4.0373438E2,2.1526094E3,2.8832422E2,2.0002773E3,3.6445684E3,0E0,1.84035E4,3.7567314E3,1.2326719E3,2.0724453E4,2.4901625E4,1.1881875E3,1.7766875E3,0E0,0E0,0E0,0E0,0E0,0E0,0E0,0E0,0E0,0E0,0E0,0E0,0E0,0E0,0E0,0E0,0E0,0E0,0E0,0E0,0E0,0E0,0E0,0E0,0E0,0E0,0E0,0E0,0E0,0E0],"parents":[2147483647,0,0,1,1,2,2,3,3,4,4,5,5,6,6,7,7,8,8,9,9,10,10,11,11,12,12,13,13,14,14,15,15,16,16,17,17,18,18,19,19,20,20,21,21,22,22,24,24,25,25,26,26,27,27,28,28,29,29,30,30],"right_children":[2,4,6,8,10,12,14,16,18,20,22,24,26,28,30,32,34,36,38,40,42,44,46,-1,48,50,52,54,56,58,60,-1,-1,-1,-1,-1,-1,-1,-1,-1,-1,-1,-1,-1,-1,-1,-1,-1,-1,-1,-1,-1,-1,-1,-1,-1,-1,-1,-1,-1,-1],"split_conditions":[3E0,3E0,3E0,1E0,2E0,2E0,4E0,1E0,2E0,2E0,2E0,4E0,3E0,4E0,4E0,1E0,2E0,2E0,1E0,4E0,2E0,2E0,2E0,-5.8474995E-2,3E0,4E0,2E0,2E0,1E0,3E0,4E0,-1.4592637E0,-1.1816036E0,-1.0484849E0,-8.2919693E-1,-8.2919693E-1,-6.473881E-1,-6.473881E-1,-5.296723E-1,-5.296723E-1,-4.11873E-1,-4.11873E-1,-2.9407367E-1,-2.9407367E-1,-1.7627434E-1,-1.7627434E-1,-5.8474995E-2,2.7516067E-2,1.7566067E-1,1.7566067E-1,3.092704E-1,3.092704E-1,4.1281945E-1,4.1281945E-1,5.8622736E-1,6.194882E-1,8.5176563E-1,8.5176563E-1,9.512496E-1,1.0349289E0,1.2010598E0],"split_indices":[5,4,1,1,3,2,2,8,3,2,9,4,8,8,8,6,8,6,8,9,9,2,8,0,8,6,6,2,2,8,1,0,0,0,0,0,0,0,0,0,0,0,0,0,0,0,0,0,0,0,0,0,0,0,0,0,0,0,0,0,0],"split_type":[0,0,0,0,0,0,0,0,0,0,0,0,0,0,0,0,0,0,0,0,0,0,0,0,0,0,0,0,0,0,0,0,0,0,0,0,0,0,0,0,0,0,0,0,0,0,0,0,0,0,0,0,0,0,0,0,0,0,0,0,0],"sum_hessian":[2.5435E4,1.1139E4,1.4296E4,6.064E3,5.075E3,6.539E3,7.757E3,3.466E3,2.598E3,1.527E3,3.548E3,4.481E3,2.058E3,5.306E3,2.451E3,1.216E3,2.25E3,1.351E3,1.247E3,1.198E3,3.29E2,7.83E2,2.765E3,2.097E3,2.384E3,8.71E2,1.187E3,2.956E3,2.35E3,6.61E2,1.79E3,6.16E2,6E2,1.359E3,8.91E2,6.32E2,7.19E2,3.7E1,1.21E3,1.048E3,1.5E2,4.5E1,2.84E2,6.52E2,1.31E2,4.63E2,2.302E3,1.081E3,1.303E3,3.53E2,5.18E2,5.5E1,1.132E3,1.056E3,1.9E3,8.64E2,1.486E3,1.98E2,4.63E2,2.01E2,1.589E3],"tree_param":{"num_deleted":"0","num_feature":"10","num_nodes":"61","size_leaf_vector":"1"}},{"base_weights":[-6.2201984E-2,-8.963978E0,1.0157806E1,-1.6133793E1,-2.0249555E0,3.9099028E0,1.6352825E1,-1.991134E1,-1.0995598E1,-6.521865E0,5.969143E-1,5.969143E-1,7.39157E0,1.1135597E1,1.8758545E1,-2.2629425E1,-1.5453469E1,-1.3980734E1,-9.079374E0,-9.079374E0,-2.9624753E0,-2.9624753E0,5.969143E-1,5.969143E-1,3.6278393E0,3.9942422E0,9.368209E0,1.0131364E1,1.3861399E1,1.5436881E1,2.0441236E1,-1.2951545E0,-9.92022E-1,-9.520723E-1,-7.726735E-1,-7.726735E-1,-5.915949E-1,-5.7650274E-1,-4.5396873E-1,-4.5396873E-1,-3.31189E-1,-3.0104622E-1,-1.4812377E-1,-1.4812377E-1,-5.9139024E-2,-4.6106603E-2,2.9845715E-2,2.9845715E-2,5.9375715E-2,1.05618834E-1,1.9971211E-1,1.9971211E-1,2.842043E-1,3.340613E-1,5.065682E-1,5.065682E-1,5.998191E-1,5.998191E-1,7.4735355E-1,7.4735355E-1,8.5399055E-1,8.969529E-1,1.0635449E0],"categories":[],"categories_nodes":[],"categories_segments":[],"categories_sizes":[],"default_left":[0,0,0,0,0,0,0,0,0,0,0,0,0,0,0,0,0,0,0,0,0,0,0,0,0,0,0,0,0,0,0,0,0,0,0,0,0,0,0,0,0,0,0,0,0,0,0,0,0,0,0,0,0,0,0,0,0,0,0,0,0,0,0],"id":11,"left_children":[1,3,5,7,9,11,13,15,17,19,21,23,25,27,29,31,33,35,37,39,41,43,45,47,49,51,53,55,57,59,61,-1,-1,-1,-1,-1,-1,-1,-1,-1,-1,-1,-1,-1,-1,-1,-1,-1,-1,-1,-1,-1,-1,-1,-1,-1,-1,-1,-1,-1,-1,-1,-1],"loss_changes":[2.3278995E6,6.80369E5,4.6100075E5,1.30331375E5,1.3916456E5,1.04924984E5,7.485975E4,5.7669875E4,2.4399188E4,4.272875E4,1.0079964E4,5.483988E3,3.5450156E4,6.742672E3,2.2555875E4,2.3407125E4,3.2459531E3,6.7045938E3,3.148039E3,6.936422E3,5.5839736E3,9.1781445E2,1.1949307E3,6.1033203E1,2.2499028E3,2.953037E2,1.6244453E4,1.6132422E3,2.0835312E3,3.3163438E3,7.114875E3,0E0,0E0,0E0,0E0,0E0,0E0,0E0,0E0,0E0,0E0,0E0,0E0,0E0,0E0,0E0,0E0,0E0,0E0,0E0,0E0,0E0,0E0,0E0,0E0,0E0,0E0,0E0,0E0,0E0,0E0,0E0,0E0],"parents":[2147483647,0,0,1,1,2,2,3,3,4,4,5,5,6,6,7,7,8,8,9,9,10,10,11,11,12,12,13,13,14,14,15,15,16,16,17,17,18,18,19,19,20,20,21,21,22,22,23,23,24,24,25,25,26,26,27,27,28,28,29,29,30,30],"right_children":[2,4,6,8,10,12,14,16,18,20,22,24,26,28,30,32,34,36,38,40,42,44,46,48,50,52,54,56,58,60,62,-1,-1,-1,-1,-1,-1,-1,-1,-1,-1,-1,-1,-1,-1,-1,-1,-1,-1,-1,-1,-1,-1,-1,-1,-1,-1,-1,-1,-1,-1,-1,-1],"split_conditions":[3E0,3E0,3E0,2E0,2E0,4E0,4E0,1E0,1E0,3E0,2E0,2E0,1E0,4E0,4E0,1E0,1E0,2E0,2E0,2E0,2E0,3E0,2E0,4E0,2E0,1E0,4E0,4E0,3E0,4E0,4E0,-1.2951545E0,-9.92022E-1,-9.520723E-1,-7.726735E-1,-7.726735E-1,-5.915949E-1,-5.7650274E-1,-4.5396873E-1,-4.5396873E-1,-3.31189E-1,-3.0104622E-1,-1.4812377E-1,-1.4812377E-1,-5.9139024E-2,-4.6106603E-2,2.9845715E-2,2.9845715E-2,5.9375715E-2,1.05618834E-1,1.9971211E-1,1.9971211E-1,2.842043E-1,3.340613E-1,5.065682E-1,5.065682E-1,5.998191E-1,5.998191E-1,7.4735355E-1,7.4735355E-1,8.5399055E-1,8.969529E-1,1.0635449E0],"split_indices":[8,6,7,0,7,6,5,7,7,5,5,7,1,8,7,8,3,5,5,3,0,0,3,1,6,7,5,1,5,8,8,0,0,0,0,0,0,0,0,0,0,0,0,0,0,0,0,0,0,0,0,0,0,0,0,0,0,0,0,0,0,0,0],"split_type":[0,0,0,0,0,0,0,0,0,0,0,0,0,0,0,0,0,0,0,0,0,0,0,0,0,0,0,0,0,0,0,0,0,0,0,0,0,0,0,0,0,0,0,0,0,0,0,0,0,0,0,0,0,0,0,0,0,0,0,0,0,0,0],"sum_hessian":[2.5586E4,1.3675E4,1.1911E4,6.725E3,6.95E3,5.931E3,5.98E3,3.874E3,2.851E3,3.688E3,3.262E3,2.249E3,3.682E3,1.889E3,4.091E3,2.619E3,1.255E3,1.454E3,1.397E3,2.156E3,1.532E3,3.81E2,2.881E3,1.653E3,5.96E2,9.83E2,2.699E3,1.261E3,6.28E2,1.379E3,2.712E3,1.201E3,1.418E3,2.38E2,1.017E3,6.85E2,7.69E2,4.49E2,9.48E2,9.93E2,1.163E3,3.95E2,1.137E3,2.9E2,9.1E1,5.17E2,2.364E3,1.478E3,1.75E2,1.6E2,4.36E2,8.75E2,1.08E2,1.224E3,1.475E3,1.01E3,2.51E2,1.67E2,4.61E2,5.29E2,8.5E2,5.13E2,2.199E3],"tree_param":{"num_deleted":"0","num_feature":"10","num_nodes":"63","size_leaf_vector":"1"}},{"base_weights":[-6.1224964E-2,-9.402923E0,8.809755E0,-1.6050957E1,-3.4378254E0,3.7781522E0,1.54667225E1,-2.1063946E1,-1.135435E1,-9.371733E0,-2.9658365E-1,-2.9658365E-1,7.415826E0,1.2155656E1,1.907797E1,-2.5362698E1,-1.8552795E1,-1.4569444E1,-9.744391E0,-9.744391E0,-5.894446E0,-4.609655E0,-2.9658365E-1,-2.9658365E-1,2.245245E0,4.061925E0,9.6224375E0,9.6224375E0,1.3776576E1,7.808407E-1,1.9719522E1,-1.388326E0,-1.1498489E0,-9.988117E-1,-8.104574E-1,-8.104574E-1,-6.078459E-1,-6.078459E-1,-4.8721957E-1,-4.8721957E-1,-4.0595827E-1,-3.9097095E-1,-2.417079E-1,-2.417079E-1,-1.22655965E-1,-1.22655965E-1,-1.4829183E-2,-1.4829183E-2,4.8716534E-2,4.8716534E-2,1.7798106E-1,1.7798106E-1,3.14327E-1,3.4210905E-1,4.8112187E-1,4.8112187E-1,5.7079846E-1,5.8497536E-1,7.509525E-1,8.8340837E-1,1.0191586E0],"categories":[],"categories_nodes":[],"categories_segments":[],"categories_sizes":[],"default_left":[0,0,0,0,0,0,0,0,0,0,0,0,0,0,0,0,0,0,0,0,0,0,0,0,0,0,0,0,0,0,0,0,0,0,0,0,0,0,0,0,0,0,0,0,0,0,0,0,0,0,0,0,0,0,0,0,0,0,0,0,0],"id":12,"left_children":[1,3,5,7,9,11,13,15,17,19,21,23,25,27,29,31,33,35,37,39,41,43,45,47,49,51,53,55,57,-1,59,-1,-1,-1,-1,-1,-1,-1,-1,-1,-1,-1,-1,-1,-1,-1,-1,-1,-1,-1,-1,-1,-1,-1,-1,-1,-1,-1,-1,-1,-1],"loss_changes":[2.1161688E6,4.9318838E5,4.3866206E5,1.3824688E5,1.3855972E5,1.5348253E5,6.7181875E4,3.0229875E4,2.5576156E4,1.2887359E4,3.0043078E4,6.415579E3,4.0989156E4,2.317375E4,1.0443875E4,5.3098125E3,8.7439375E3,7.509375E3,1.8022578E3,1.5294688E3,3.057709E3,5.841785E3,1.3416321E3,3.1985986E2,5.086331E3,8.806543E3,8.5624375E3,2.13E2,9.907625E3,0E0,5.6773125E3,0E0,0E0,0E0,0E0,0E0,0E0,0E0,0E0,0E0,0E0,0E0,0E0,0E0,0E0,0E0,0E0,0E0,0E0,0E0,0E0,0E0,0E0,0E0,0E0,0E0,0E0,0E0,0E0,0E0,0E0],"parents":[2147483647,0,0,1,1,2,2,3,3,4,4,5,5,6,6,7,7,8,8,9,9,10,10,11,11,12,12,13,13,14,14,15,15,16,16,17,17,18,18,19,19,20,20,21,21,22,22,23,23,24,24,25,25,26,26,27,27,28,28,30,30],"right_children":[2,4,6,8,10,12,14,16,18,20,22,24,26,28,30,32,34,36,38,40,42,44,46,48,50,52,54,56,58,-1,60,-1,-1,-1,-1,-1,-1,-1,-1,-1,-1,-1,-1,-1,-1,-1,-1,-1,-1,-1,-1,-1,-1,-1,-1,-1,-1,-1,-1,-1,-1],"split_conditions":[2E0,2E0,4E0,2E0,3E0,3E0,4E0,1E0,2E0,3E0,3E0,3E0,3E0,4E0,3E0,1E0,2E0,2E0,1E0,1E0,3E0,1E0,2E0,4E0,3E0,4E0,3E0,3E0,2E0,7.808407E-1,4E0,-1.388326E0,-1.1498489E0,-9.988117E-1,-8.104574E-1,-8.104574E-1,-6.078459E-1,-6.078459E-1,-4.8721957E-1,-4.8721957E-1,-4.0595827E-1,-3.9097095E-1,-2.417079E-1,-2.417079E-1,-1.22655965E-1,-1.22655965E-1,-1.4829183E-2,-1.4829183E-2,4.8716534E-2,4.8716534E-2,1.7798106E-1,1.7798106E-1,3.14327E-1,3.4210905E-1,4.8112187E-1,4.8112187E-1,5.7079846E-1,5.8497536E-1,7.509525E-1,8.8340837E-1,1.0191586E0],"split_indices":[1,8,3,6,6,5,7,5,5,5,5,0,7,6,4,0,0,0,0,7,0,7,0,7,7,6,0,6,7,0,5,0,0,0,0,0,0,0,0,0,0,0,0,0,0,0,0,0,0,0,0,0,0,0,0,0,0,0,0,0,0],"split_type":[0,0,0,0,0,0,0,0,0,0,0,0,0,0,0,0,0,0,0,0,0,0,0,0,0,0,0,0,0,0,0,0,0,0,0,0,0,0,0,0,0,0,0,0,0,0,0,0,0,0,0,0,0,0,0,0,0,0,0,0,0],"sum_hessian":[2.5534E4,1.2437E4,1.3097E4,5.881E3,6.556E3,7.46E3,5.637E3,2.843E3,3.038E3,2.467E3,4.089E3,2.798E3,4.662E3,2.943E3,2.694E3,1.045E3,1.798E3,1.44E3,1.598E3,1.569E3,8.98E2,1.614E3,2.475E3,1.806E3,9.92E2,2.062E3,2.6E3,5.01E2,2.442E3,1.42E2,2.552E3,5.13E2,5.32E2,1.33E3,4.68E2,8.98E2,5.42E2,1.73E2,1.425E3,9.55E2,6.14E2,4.56E2,4.42E2,8.18E2,7.96E2,2.52E2,2.223E3,1.708E3,9.8E1,6.32E2,3.6E2,8.07E2,1.255E3,6.89E2,1.911E3,4.07E2,9.4E1,5.75E2,1.867E3,2.83E2,2.269E3],"tree_param":{"num_deleted":"0","num_feature":"10","num_nodes":"61","size_leaf_vector":"1"}},{"base_weights":[-6.478773E-2,-8.755732E0,8.534479E0,-1.5437915E1,-3.116283E0,3.8647895E0,1.5700765E1,-1.8694809E1,-9.7425785E0,-6.4445443E0,-1.1062622E-1,-1.1062622E-1,7.5588923E0,1.1561408E1,1.9105762E1,-2.0928392E1,-1.4218694E1,-1.29250765E1,-9.277099E0,-9.277099E0,-3.2775853E0,-3.2775853E0,-1.1062622E-1,-1.1062622E-1,3.724133E0,3.724133E0,9.679456E0,9.782777E0,1.4186921E1,7.666793E-1,1.9892776E1,-1.2049661E0,-9.4669676E-1,-8.786772E-1,-7.109347E-1,-7.109347E-1,-5.5505437E-1,-5.5505437E-1,-4.6385494E-1,-4.6385494E-1,-3.3158833E-1,-3.138671E-1,-1.6387926E-1,-1.6387926E-1,-8.4705286E-2,-4.868045E-2,-5.531311E-3,-5.531311E-3,9.033767E-2,9.033767E-2,1.8620665E-1,1.8620665E-1,3.3079913E-1,3.3508974E-1,4.8913884E-1,4.8913884E-1,5.9924245E-1,6.176561E-1,7.666793E-1,8.806591E-1,1.0352705E0],"categories":[],"categories_nodes":[],"categories_segments":[],"categories_sizes":[],"default_left":[0,0,0,0,0,0,0,0,0,0,0,0,0,0,0,0,0,0,0,0,0,0,0,0,0,0,0,0,0,0,0,0,0,0,0,0,0,0,0,0,0,0,0,0,0,0,0,0,0,0,0,0,0,0,0,0,0,0,0,0,0],"id":13,"left_children":[1,3,5,7,9,11,13,15,17,19,21,23,25,27,29,31,33,35,37,39,41,43,45,47,49,51,53,55,57,-1,59,-1,-1,-1,-1,-1,-1,-1,-1,-1,-1,-1,-1,-1,-1,-1,-1,-1,-1,-1,-1,-1,-1,-1,-1,-1,-1,-1,-1,-1,-1],"loss_changes":[1.9168224E6,4.8064688E5,4.3136138E5,1.081075E5,1.24325914E5,1.440213E5,7.146375E4,3.7415375E4,1.2774359E4,5.0491047E4,1.9758593E3,1.6372814E4,4.1270906E4,1.55999375E4,9.550375E3,1.5278625E4,4.0198594E3,3.7614219E3,3.6308203E2,7.8143906E3,8.863826E3,5.4441724E2,3.5735474E1,1.3269895E3,3.2225771E3,4.6358438E3,1.28249375E4,1.0554609E3,3.8578281E3,0E0,4.3229375E3,0E0,0E0,0E0,0E0,0E0,0E0,0E0,0E0,0E0,0E0,0E0,0E0,0E0,0E0,0E0,0E0,0E0,0E0,0E0,0E0,0E0,0E0,0E0,0E0,0E0,0E0,0E0,0E0,0E0,0E0],"parents":[2147483647,0,0,1,1,2,2,3,3,4,4,5,5,6,6,7,7,8,8,9,9,10,10,11,11,12,12,13,13,14,14,15,15,16,16,17,17,18,18,19,19,20,20,21,21,22,22,23,23,24,24,25,25,26,26,27,27,28,28,30,30],"right_children":[2,4,6,8,10,12,14,16,18,20,22,24,26,28,30,32,34,36,38,40,42,44,46,48,50,52,54,56,58,-1,60,-1,-1,-1,-1,-1,-1,-1,-1,-1,-1,-1,-1,-1,-1,-1,-1,-1,-1,-1,-1,-1,-1,-1,-1,-1,-1,-1,-1,-1,-1],"split_conditions":[4E0,2E0,3E0,1E0,2E0,3E0,4E0,2E0,2E0,3E0,2E0,2E0,2E0,4E0,4E0,1E0,1E0,2E0,1E0,1E0,1E0,3E0,1E0,4E0,2E0,1E0,4E0,4E0,4E0,7.666793E-1,4E0,-1.2049661E0,-9.4669676E-1,-8.786772E-1,-7.109347E-1,-7.109347E-1,-5.5505437E-1,-5.5505437E-1,-4.6385494E-1,-4.6385494E-1,-3.3158833E-1,-3.138671E-1,-1.6387926E-1,-1.6387926E-1,-8.4705286E-2,-4.868045E-2,-5.531311E-3,-5.531311E-3,9.033767E-2,9.033767E-2,1.8620665E-1,1.8620665E-1,3.3079913E-1,3.3508974E-1,4.8913884E-1,4.8913884E-1,5.9924245E-1,6.176561E-1,7.666793E-1,8.806591E-1,1.0352705E0],"split_indices":[4,8,2,2,2,8,8,5,5,5,5,2,1,5,5,4,9,9,3,2,1,1,9,3,3,2,5,3,1,0,1,0,0,0,0,0,0,0,0,0,0,0,0,0,0,0,0,0,0,0,0,0,0,0,0,0,0,0,0,0,0],"split_type":[0,0,0,0,0,0,0,0,0,0,0,0,0,0,0,0,0,0,0,0,0,0,0,0,0,0,0,0,0,0,0,0,0,0,0,0,0,0,0,0,0,0,0,0,0,0,0,0,0,0,0,0,0,0,0,0,0,0,0,0,0],"sum_hessian":[2.5646E4,1.2755E4,1.2891E4,5.837E3,6.918E3,7.806E3,5.085E3,3.712E3,2.125E3,4.656E3,2.262E3,3.261E3,4.545E3,2.297E3,2.788E3,2.487E3,1.225E3,1E3,1.125E3,2.633E3,2.023E3,1.78E2,2.084E3,2.382E3,8.79E2,1.497E3,3.048E3,1.114E3,1.183E3,4.09E2,2.379E3,9.56E2,1.531E3,3.04E2,9.21E2,5.8E2,4.2E2,1.08E2,1.017E3,1.505E3,1.128E3,8.42E2,1.181E3,1.43E2,3.5E1,4.7E1,2.037E3,2.143E3,2.39E2,1.74E2,7.05E2,9.42E2,5.55E2,1.206E3,1.842E3,9.37E2,1.77E2,6.35E2,5.48E2,6.02E2,1.777E3],"tree_param":{"num_deleted":"0","num_feature":"10","num_nodes":"61","size_leaf_vector":"1"}},{"base_weights":[-2.6225071E-2,-9.29378E0,7.3460655E0,-1.7222525E1,-5.3433733E0,1.0275823E0,1.2859759E1,-1.9920547E1,-1.2305621E1,-1.0726503E1,-2.0702744E0,-9.738574E-1,6.8336415E0,8.578274E0,1.6895243E1,-2.3217022E1,-1.77213E1,-1.4359736E1,-5.641475E-1,-1.1282949E1,-6.398389E0,-6.398389E0,-9.738574E-1,-9.738574E-1,2.720981E0,2.929892E0,6.9436707E0,6.9436707E0,1.0780511E1,1.4382071E1,1.8972075E1,-1.2397186E0,-1.0307368E0,-9.5599794E-1,-8.056542E-1,-7.8178257E-1,-6.4106715E-1,-5.641475E-1,-4.5715353E-1,-4.420335E-1,-3.1991944E-1,-3.1991944E-1,-1.8430616E-1,-1.8430616E-1,-4.869287E-2,-4.869287E-2,4.3668456E-2,4.3678086E-2,1.4649461E-1,1.4649461E-1,2.4683908E-1,2.4683908E-1,3.4718356E-1,3.4718356E-1,4.4310457E-1,4.4977006E-1,6.368379E-1,6.368379E-1,7.884568E-1,8.3385366E-1,9.7044104E-1],"categories":[],"categories_nodes":[],"categories_segments":[],"categories_sizes":[],"default_left":[0,0,0,0,0,0,0,0,0,0,0,0,0,0,0,0,0,0,0,0,0,0,0,0,0,0,0,0,0,0,0,0,0,0,0,0,0,0,0,0,0,0,0,0,0,0,0,0,0,0,0,0,0,0,0,0,0,0,0,0,0],"id":14,"left_children":[1,3,5,7,9,11,13,15,17,19,21,23,25,27,29,31,33,35,-1,37,39,41,43,45,47,49,51,53,55,57,59,-1,-1,-1,-1,-1,-1,-1,-1,-1,-1,-1,-1,-1,-1,-1,-1,-1,-1,-1,-1,-1,-1,-1,-1,-1,-1,-1,-1,-1,-1],"loss_changes":[1.7479784E6,3.5494012E5,4.9639625E5,4.9754E4,1.3330461E5,1.0494209E5,1.3132212E5,1.722E4,7.0785312E3,1.8303812E4,4.4402168E4,1.797851E4,1.749468E4,2.2188938E4,2.01665E4,3.4704375E3,5.603625E3,2.8404375E3,0E0,5.0974062E3,5.1239453E2,3.0199062E3,8.900884E3,1.9849785E3,6.4189346E3,1.0148115E3,2.7290312E3,1.3657148E3,1.0066359E4,5.5034688E3,2.2356875E3,0E0,0E0,0E0,0E0,0E0,0E0,0E0,0E0,0E0,0E0,0E0,0E0,0E0,0E0,0E0,0E0,0E0,0E0,0E0,0E0,0E0,0E0,0E0,0E0,0E0,0E0,0E0,0E0,0E0,0E0],"parents":[2147483647,0,0,1,1,2,2,3,3,4,4,5,5,6,6,7,7,8,8,9,9,10,10,11,11,12,12,13,13,14,14,15,15,16,16,17,17,19,19,20,20,21,21,22,22,23,23,24,24,25,25,26,26,27,27,28,28,29,29,30,30],"right_children":[2,4,6,8,10,12,14,16,18,20,22,24,26,28,30,32,34,36,-1,38,40,42,44,46,48,50,52,54,56,58,60,-1,-1,-1,-1,-1,-1,-1,-1,-1,-1,-1,-1,-1,-1,-1,-1,-1,-1,-1,-1,-1,-1,-1,-1,-1,-1,-1,-1,-1,-1],"split_conditions":[3E0,2E0,2E0,2E0,2E0,4E0,4E0,1E0,3E0,2E0,1E0,2E0,3E0,3E0,4E0,1E0,1E0,1E0,-5.641475E-1,2E0,1E0,3E0,3E0,4E0,4E0,2E0,1E0,4E0,4E0,4E0,4E0,-1.2397186E0,-1.0307368E0,-9.5599794E-1,-8.056542E-1,-7.8178257E-1,-6.4106715E-1,-5.641475E-1,-4.5715353E-1,-4.420335E-1,-3.1991944E-1,-3.1991944E-1,-1.8430616E-1,-1.8430616E-1,-4.869287E-2,-4.869287E-2,4.3668456E-2,4.3678086E-2,1.4649461E-1,1.4649461E-1,2.4683908E-1,2.4683908E-1,3.4718356E-1,3.4718356E-1,4.4310457E-1,4.4977006E-1,6.368379E-1,6.368379E-1,7.884568E-1,8.3385366E-1,9.7044104E-1],"split_indices":[5,6,2,0,3,0,3,3,3,2,1,7,6,1,7,5,7,2,0,0,0,0,4,3,6,7,1,0,5,0,0,0,0,0,0,0,0,0,0,0,0,0,0,0,0,0,0,0,0,0,0,0,0,0,0,0,0,0,0,0,0],"split_type":[0,0,0,0,0,0,0,0,0,0,0,0,0,0,0,0,0,0,0,0,0,0,0,0,0,0,0,0,0,0,0,0,0,0,0,0,0,0,0,0,0,0,0,0,0,0,0,0,0,0,0,0,0,0,0,0,0,0,0,0,0],"sum_hessian":[2.5582E4,1.1334E4,1.4248E4,3.768E3,7.566E3,6.64E3,7.608E3,2.431E3,1.337E3,2.86E3,4.706E3,4.483E3,2.157E3,3.693E3,3.915E3,9.69E2,1.462E3,9.08E2,4.29E2,2.424E3,4.36E2,1.206E3,3.5E3,3.167E3,1.316E3,4.86E2,1.671E3,1.513E3,2.18E3,1.775E3,2.14E3,5.98E2,3.71E2,1.066E3,3.96E2,6.5E2,2.58E2,1.284E3,1.14E3,4.5E1,3.91E2,8.04E2,4.02E2,7.34E2,2.766E3,2.586E3,5.81E2,4.5E2,8.66E2,3.07E2,1.79E2,3.32E2,1.339E3,1.311E3,2.02E2,1.326E3,8.54E2,6.37E2,1.138E3,2.93E2,1.847E3],"tree_param":{"num_deleted":"0","num_feature":"10","num_nodes":"61","size_leaf_vector":"1"}},{"base_weights":[-2.8344667E-2,-8.148677E0,7.704421E0,-1.3584637E1,-2.6332545E0,1.6502981E0,1.2781594E1,-1.6505901E1,-8.501523E0,-8.108946E0,-2.2969487E-1,-2.2212791E-1,6.3226676E0,9.165809E0,1.6495667E1,-1.8889671E1,-1.2503712E1,-1.1557847E1,-8.108946E0,-8.108946E0,-4.1693206E0,-4.1693206E0,-2.2212791E-1,-2.2212791E-1,3.0502698E0,3.0502698E0,7.215946E0,7.215946E0,1.2272845E1,1.4235755E1,1.8449888E1,-1.0979124E0,-8.360529E-1,-7.8483456E-1,-6.251856E-1,-6.251856E-1,-4.9166986E-1,-4.9166986E-1,-4.054473E-1,-4.054473E-1,-3.0695668E-1,-3.0695668E-1,-2.0846604E-1,-2.0846604E-1,-1.0978621E-1,-1.0978621E-1,-1.1106396E-2,-1.1106396E-2,2.9010726E-2,7.070355E-2,1.5251349E-1,1.5251349E-1,2.3118424E-1,2.5665542E-1,3.6079732E-1,3.6079732E-1,4.585983E-1,4.872198E-1,6.415369E-1,6.415369E-1,7.6460665E-1,8.1714106E-1,9.41884E-1],"categories":[],"categories_nodes":[],"categories_segments":[],"categories_sizes":[],"default_left":[0,0,0,0,0,0,0,0,0,0,0,0,0,0,0,0,0,0,0,0,0,0,0,0,0,0,0,0,0,0,0,0,0,0,0,0,0,0,0,0,0,0,0,0,0,0,0,0,0,0,0,0,0,0,0,0,0,0,0,0,0,0,0],"id":15,"left_children":[1,3,5,7,9,11,13,15,17,19,21,23,25,27,29,31,33,35,37,39,41,43,45,47,49,51,53,55,57,59,61,-1,-1,-1,-1,-1,-1,-1,-1,-1,-1,-1,-1,-1,-1,-1,-1,-1,-1,-1,-1,-1,-1,-1,-1,-1,-1,-1,-1,-1,-1,-1,-1],"loss_changes":[1.6052935E6,3.73835E5,4.0249088E5,9.3112E4,8.92721E4,7.761708E4,9.5492E4,4.1970375E4,1.22011875E4,8.368531E3,2.7561658E4,1.3056639E4,1.9614656E4,2.3119812E4,1.5247875E4,1.6928062E4,3.1742188E3,3.0261406E3,4.9571875E2,1.3022344E3,3.9619556E2,9.4897656E2,5.795996E3,4.0294067E2,3.7318115E3,1.632042E3,2.5157266E3,4.4090625E3,4.1129375E3,3.6213125E3,1.9736875E3,0E0,0E0,0E0,0E0,0E0,0E0,0E0,0E0,0E0,0E0,0E0,0E0,0E0,0E0,0E0,0E0,0E0,0E0,0E0,0E0,0E0,0E0,0E0,0E0,0E0,0E0,0E0,0E0,0E0,0E0,0E0,0E0],"parents":[2147483647,0,0,1,1,2,2,3,3,4,4,5,5,6,6,7,7,8,8,9,9,10,10,11,11,12,12,13,13,14,14,15,15,16,16,17,17,18,18,19,19,20,20,21,21,22,22,23,23,24,24,25,25,26,26,27,27,28,28,29,29,30,30],"right_children":[2,4,6,8,10,12,14,16,18,20,22,24,26,28,30,32,34,36,38,40,42,44,46,48,50,52,54,56,58,60,62,-1,-1,-1,-1,-1,-1,-1,-1,-1,-1,-1,-1,-1,-1,-1,-1,-1,-1,-1,-1,-1,-1,-1,-1,-1,-1,-1,-1,-1,-1,-1,-1],"split_conditions":[3E0,3E0,2E0,1E0,1E0,4E0,4E0,2E0,2E0,3E0,2E0,2E0,1E0,4E0,4E0,1E0,1E0,2E0,1E0,3E0,2E0,3E0,2E0,1E0,4E0,4E0,2E0,3E0,3E0,4E0,4E0,-1.0979124E0,-8.360529E-1,-7.8483456E-1,-6.251856E-1,-6.251856E-1,-4.9166986E-1,-4.9166986E-1,-4.054473E-1,-4.054473E-1,-3.0695668E-1,-3.0695668E-1,-2.0846604E-1,-2.0846604E-1,-1.0978621E-1,-1.0978621E-1,-1.1106396E-2,-1.1106396E-2,2.9010726E-2,7.070355E-2,1.5251349E-1,1.5251349E-1,2.3118424E-1,2.5665542E-1,3.6079732E-1,3.6079732E-1,4.585983E-1,4.872198E-1,6.415369E-1,6.415369E-1,7.6460665E-1,8.1714106E-1,9.41884E-1],"split_indices":[3,4,2,2,7,0,8,0,5,8,5,7,7,5,2,5,5,6,8,0,5,0,0,2,6,6,6,7,7,5,5,0,0,0,0,0,0,0,0,0,0,0,0,0,0,0,0,0,0,0,0,0,0,0,0,0,0,0,0,0,0,0,0],"split_type":[0,0,0,0,0,0,0,0,0,0,0,0,0,0,0,0,0,0,0,0,0,0,0,0,0,0,0,0,0,0,0,0,0,0,0,0,0,0,0,0,0,0,0,0,0,0,0,0,0,0,0,0,0,0,0,0,0,0,0,0,0,0,0],"sum_hessian":[2.5563E4,1.2469E4,1.3094E4,6.279E3,6.19E3,5.973E3,7.121E3,3.986E3,2.293E3,1.762E3,4.428E3,3.673E3,2.3E3,3.61E3,3.511E3,2.598E3,1.388E3,1.06E3,1.233E3,1.489E3,2.73E2,8.48E2,3.58E3,2.589E3,1.084E3,9.71E2,1.329E3,2.168E3,1.442E3,1.632E3,1.879E3,1.072E3,1.526E3,2.94E2,1.094E3,4.86E2,5.74E2,9.5E1,1.138E3,1.171E3,3.18E2,6.3E1,2.1E2,6.57E2,1.91E2,6.54E2,2.926E3,1.964E3,6.25E2,3.51E2,7.33E2,3.09E2,6.62E2,2.45E2,1.084E3,1.003E3,1.165E3,4.71E2,9.71E2,4.76E2,1.156E3,1.79E2,1.7E3],"tree_param":{"num_deleted":"0","num_feature":"10","num_nodes":"63","size_leaf_vector":"1"}},{"base_weights":[6.2022335E-3,-7.6732035E0,7.4437923E0,-1.2872434E1,-2.2630994E0,2.49447E0,1.2731679E1,-1.5494943E1,-8.147205E0,-7.5677667E0,-1.1470556E-1,-1.1470556E-1,5.4502497E0,1.0233292E1,1.683509E1,-1.7496225E1,-1.1821074E1,-1.1107288E1,-7.5677667E0,-7.5677667E0,-3.841236E0,-3.841236E0,-1.1470556E-1,-1.1470556E-1,2.667772E0,2.667772E0,7.6130743E0,7.9943113E0,1.2371546E1,6.767096E-1,1.7463963E1,-1.0181087E0,-7.7361083E-1,-6.8446624E-1,-5.9105366E-1,-5.9105366E-1,-4.6687636E-1,-4.6687636E-1,-3.7838835E-1,-3.7838835E-1,-2.8522506E-1,-2.8522506E-1,-1.9206181E-1,-1.9206181E-1,-9.8898545E-2,-9.8898545E-2,-5.735278E-3,-5.735278E-3,4.256556E-2,6.3826665E-2,1.3338861E-1,1.3338861E-1,2.500224E-1,2.5702116E-1,3.806537E-1,3.806537E-1,4.740307E-1,5.091464E-1,6.767096E-1,7.7495384E-1,8.927188E-1],"categories":[],"categories_nodes":[],"categories_segments":[],"categories_sizes":[],"default_left":[0,0,0,0,0,0,0,0,0,0,0,0,0,0,0,0,0,0,0,0,0,0,0,0,0,0,0,0,0,0,0,0,0,0,0,0,0,0,0,0,0,0,0,0,0,0,0,0,0,0,0,0,0,0,0,0,0,0,0,0,0],"id":16,"left_children":[1,3,5,7,9,11,13,15,17,19,21,23,25,27,29,31,33,35,37,39,41,43,45,47,49,51,53,55,57,-1,59,-1,-1,-1,-1,-1,-1,-1,-1,-1,-1,-1,-1,-1,-1,-1,-1,-1,-1,-1,-1,-1,-1,-1,-1,-1,-1,-1,-1,-1,-1],"loss_changes":[1.4568076E6,3.529537E5,3.390718E5,7.917E4,8.519063E4,8.071908E4,6.4045625E4,3.5930125E4,1.22170625E4,7.1544453E3,2.6935264E4,8.891461E3,3.3854656E4,1.855325E4,5.678125E3,1.6182125E4,6.7703125E2,2.3381172E3,6.718789E2,1.3904297E3,1.2658726E3,1.8236133E3,4.167635E3,1.716936E2,7.621504E2,4.9935127E3,5.7670938E3,3.3863984E3,9.869625E3,0E0,1.688125E3,0E0,0E0,0E0,0E0,0E0,0E0,0E0,0E0,0E0,0E0,0E0,0E0,0E0,0E0,0E0,0E0,0E0,0E0,0E0,0E0,0E0,0E0,0E0,0E0,0E0,0E0,0E0,0E0,0E0,0E0],"parents":[2147483647,0,0,1,1,2,2,3,3,4,4,5,5,6,6,7,7,8,8,9,9,10,10,11,11,12,12,13,13,14,14,15,15,16,16,17,17,18,18,19,19,20,20,21,21,22,22,23,23,24,24,25,25,26,26,27,27,28,28,30,30],"right_children":[2,4,6,8,10,12,14,16,18,20,22,24,26,28,30,32,34,36,38,40,42,44,46,48,50,52,54,56,58,-1,60,-1,-1,-1,-1,-1,-1,-1,-1,-1,-1,-1,-1,-1,-1,-1,-1,-1,-1,-1,-1,-1,-1,-1,-1,-1,-1,-1,-1,-1,-1],"split_conditions":[3E0,3E0,3E0,1E0,1E0,4E0,4E0,2E0,2E0,4E0,2E0,2E0,1E0,4E0,4E0,1E0,1E0,2E0,1E0,2E0,2E0,4E0,2E0,4E0,1E0,4E0,3E0,3E0,2E0,6.767096E-1,4E0,-1.0181087E0,-7.7361083E-1,-6.8446624E-1,-5.9105366E-1,-5.9105366E-1,-4.6687636E-1,-4.6687636E-1,-3.7838835E-1,-3.7838835E-1,-2.8522506E-1,-2.8522506E-1,-1.9206181E-1,-1.9206181E-1,-9.8898545E-2,-9.8898545E-2,-5.735278E-3,-5.735278E-3,4.256556E-2,6.3826665E-2,1.3338861E-1,1.3338861E-1,2.500224E-1,2.5702116E-1,3.806537E-1,3.806537E-1,4.740307E-1,5.091464E-1,6.767096E-1,7.7495384E-1,8.927188E-1],"split_indices":[0,4,7,2,7,4,2,3,5,5,3,2,2,3,5,5,5,3,3,2,3,5,5,1,7,3,3,2,2,0,1,0,0,0,0,0,0,0,0,0,0,0,0,0,0,0,0,0,0,0,0,0,0,0,0,0,0,0,0,0,0],"split_type":[0,0,0,0,0,0,0,0,0,0,0,0,0,0,0,0,0,0,0,0,0,0,0,0,0,0,0,0,0,0,0,0,0,0,0,0,0,0,0,0,0,0,0,0,0,0,0,0,0,0,0,0,0,0,0,0,0,0,0,0,0],"sum_hessian":[2.5504E4,1.2548E4,1.2956E4,6.398E3,6.15E3,6.693E3,6.263E3,4.113E3,2.285E3,1.808E3,4.342E3,2.616E3,4.077E3,3.895E3,2.368E3,2.843E3,1.27E3,1.04E3,1.245E3,1.418E3,3.9E2,1.094E3,3.248E3,1.935E3,6.81E2,1.887E3,2.19E3,1.905E3,1.99E3,3.18E2,2.05E3,1.173E3,1.67E3,2.33E2,1.037E3,7.6E2,2.8E2,8E1,1.165E3,1.319E3,9.9E1,8.4E1,3.06E2,9.21E2,1.73E2,3.9E2,2.858E3,1.752E3,1.83E2,9.5E1,5.86E2,9.69E2,9.18E2,4.86E2,1.704E3,8.39E2,1.066E3,7.78E2,1.212E3,2.76E2,1.774E3],"tree_param":{"num_deleted":"0","num_feature":"10","num_nodes":"61","size_leaf_vector":"1"}},{"base_weights":[-9.480272E-3,-8.28536E0,6.372679E0,-1.5345252E1,-4.8850183E0,2.5217512E0,1.2379518E1,-1.722127E1,-1.1051818E1,-9.958344E0,-2.0727043E0,-9.5634055E-1,5.4980373E0,8.0948305E0,1.4810728E1,-1.95992E1,-1.4944044E1,-1.3724876E1,-1.0115135E1,-1.0115135E1,-7.2138658E0,-4.640488E0,-9.5634055E-1,-9.5634055E-1,2.2708483E0,2.8896132E0,7.4506345E0,7.4506345E0,1.145278E1,1.2438641E1,1.622804E1,-1.0878297E0,-8.6979145E-1,-8.102026E-1,-7.0682716E-1,-7.0682716E-1,-5.960003E-1,-5.554995E-1,-5.057568E-1,-5.057568E-1,-4.33225E-1,-4.33225E-1,-3.007762E-1,-3.007762E-1,-1.3992071E-1,-1.2507468E-1,-4.781703E-2,-4.781703E-2,3.2862693E-2,3.2862693E-2,1.13542415E-1,1.13542415E-1,2.585062E-1,2.585062E-1,3.7253174E-1,3.7253174E-1,4.7258535E-1,4.7258535E-1,5.72639E-1,5.72639E-1,6.696488E-1,7.1666706E-1,8.352701E-1],"categories":[],"categories_nodes":[],"categories_segments":[],"categories_sizes":[],"default_left":[0,0,0,0,0,0,0,0,0,0,0,0,0,0,0,0,0,0,0,0,0,0,0,0,0,0,0,0,0,0,0,0,0,0,0,0,0,0,0,0,0,0,0,0,0,0,0,0,0,0,0,0,0,0,0,0,0,0,0,0,0,0,0],"id":17,"left_children":[1,3,5,7,9,11,13,15,17,19,21,23,25,27,29,31,33,35,37,39,41,43,45,47,49,51,53,55,57,59,61,-1,-1,-1,-1,-1,-1,-1,-1,-1,-1,-1,-1,-1,-1,-1,-1,-1,-1,-1,-1,-1,-1,-1,-1,-1,-1,-1,-1,-1,-1,-1,-1],"loss_changes":[1.3540419E6,2.6788056E5,3.3477975E5,2.9031562E4,1.0748716E5,1.18957125E5,5.8777812E4,1.3369375E4,3.8136406E3,1.0580594E4,3.1892314E4,1.0197535E4,4.4654203E4,7.9392656E3,1.19214375E4,5.4730625E3,2.7486562E3,5.5910156E2,3.3021094E2,3.1773438E2,5.3600938E3,1.4008738E4,1.8780464E3,2.178164E3,1.7277988E3,1.5915602E4,3.4998438E3,1.4902891E3,6.884922E2,1.88525E3,2.1518125E3,0E0,0E0,0E0,0E0,0E0,0E0,0E0,0E0,0E0,0E0,0E0,0E0,0E0,0E0,0E0,0E0,0E0,0E0,0E0,0E0,0E0,0E0,0E0,0E0,0E0,0E0,0E0,0E0,0E0,0E0,0E0,0E0],"parents":[2147483647,0,0,1,1,2,2,3,3,4,4,5,5,6,6,7,7,8,8,9,9,10,10,11,11,12,12,13,13,14,14,15,15,16,16,17,17,18,18,19,19,20,20,21,21,22,22,23,23,24,24,25,25,26,26,27,27,28,28,29,29,30,30],"right_children":[2,4,6,8,10,12,14,16,18,20,22,24,26,28,30,32,34,36,38,40,42,44,46,48,50,52,54,56,58,60,62,-1,-1,-1,-1,-1,-1,-1,-1,-1,-1,-1,-1,-1,-1,-1,-1,-1,-1,-1,-1,-1,-1,-1,-1,-1,-1,-1,-1,-1,-1,-1,-1],"split_conditions":[3E0,2E0,3E0,2E0,2E0,4E0,4E0,1E0,1E0,1E0,3E0,2E0,4E0,4E0,4E0,1E0,1E0,4E0,3E0,2E0,2E0,2E0,1E0,4E0,2E0,1E0,1E0,4E0,2E0,4E0,4E0,-1.0878297E0,-8.6979145E-1,-8.102026E-1,-7.0682716E-1,-7.0682716E-1,-5.960003E-1,-5.554995E-1,-5.057568E-1,-5.057568E-1,-4.33225E-1,-4.33225E-1,-3.007762E-1,-3.007762E-1,-1.3992071E-1,-1.2507468E-1,-4.781703E-2,-4.781703E-2,3.2862693E-2,3.2862693E-2,1.13542415E-1,1.13542415E-1,2.585062E-1,2.585062E-1,3.7253174E-1,3.7253174E-1,4.7258535E-1,4.7258535E-1,5.72639E-1,5.72639E-1,6.696488E-1,7.1666706E-1,8.352701E-1],"split_indices":[9,6,2,3,3,4,5,9,9,2,5,2,3,3,7,4,2,3,3,7,5,2,2,1,3,2,7,2,5,3,2,0,0,0,0,0,0,0,0,0,0,0,0,0,0,0,0,0,0,0,0,0,0,0,0,0,0,0,0,0,0,0,0],"split_type":[0,0,0,0,0,0,0,0,0,0,0,0,0,0,0,0,0,0,0,0,0,0,0,0,0,0,0,0,0,0,0,0,0,0,0,0,0,0,0,0,0,0,0,0,0,0,0,0,0,0,0,0,0,0,0,0,0,0,0,0,0,0,0],"sum_hessian":[2.5634E4,1.1161E4,1.4473E4,3.627E3,7.534E3,8.82E3,5.653E3,2.522E3,1.105E3,2.686E3,4.848E3,3.404E3,5.416E3,2.048E3,3.605E3,1.23E3,1.292E3,3.74E2,7.31E2,1.41E3,1.276E3,2.794E3,2.054E3,2.575E3,8.29E2,3.141E3,2.275E3,1.572E3,4.76E2,1.352E3,2.253E3,6.17E2,6.13E2,8.86E2,4.06E2,3.02E2,7.2E1,4.36E2,2.95E2,1.339E3,7.1E1,6.22E2,6.54E2,1.95E3,8.44E2,7.86E2,1.268E3,2.154E3,4.21E2,1.26E2,7.03E2,1.551E3,1.59E3,6.48E2,1.627E3,1.341E3,2.31E2,3.7E1,4.39E2,4.68E2,8.84E2,3.97E2,1.856E3],"tree_param":{"num_deleted":"0","num_feature":"10","num_nodes":"63","size_leaf_vector":"1"}},{"base_weights":[-2.1625092E-2,-6.4928956E0,7.4669266E0,-1.1564822E1,-1.6521285E0,2.2273393E0,1.1535127E1,-1.4194735E1,-7.4643235E0,-6.608475E0,4.870155E-1,4.870155E-1,4.9388585E0,7.7076545E0,1.3986912E1,-1.6313496E1,-1.0829529E1,-1.0139514E1,-6.608475E0,-6.608475E0,-3.06073E0,-3.06073E0,4.870155E-1,4.870155E-1,2.7129369E0,2.7129369E0,6.881233E0,6.881233E0,1.0847283E1,1.194693E1,1.5656948E1,-9.4971657E-1,-7.021963E-1,-6.7857563E-1,-5.414764E-1,-5.414764E-1,-4.1869974E-1,-4.1869974E-1,-3.3042377E-1,-3.3042377E-1,-2.4173012E-1,-2.4173012E-1,-1.530365E-1,-1.530365E-1,-6.4342864E-2,-6.4342864E-2,2.4350775E-2,2.4350775E-2,5.588398E-2,7.999881E-2,1.3564685E-1,1.3564685E-1,2.339073E-1,2.3985425E-1,3.4406167E-1,3.4406167E-1,4.432129E-1,4.432129E-1,5.423642E-1,5.423642E-1,6.715876E-1,6.90097E-1,8.1041044E-1],"categories":[],"categories_nodes":[],"categories_segments":[],"categories_sizes":[],"default_left":[0,0,0,0,0,0,0,0,0,0,0,0,0,0,0,0,0,0,0,0,0,0,0,0,0,0,0,0,0,0,0,0,0,0,0,0,0,0,0,0,0,0,0,0,0,0,0,0,0,0,0,0,0,0,0,0,0,0,0,0,0,0,0],"id":18,"left_children":[1,3,5,7,9,11,13,15,17,19,21,23,25,27,29,31,33,35,37,39,41,43,45,47,49,51,53,55,57,59,61,-1,-1,-1,-1,-1,-1,-1,-1,-1,-1,-1,-1,-1,-1,-1,-1,-1,-1,-1,-1,-1,-1,-1,-1,-1,-1,-1,-1,-1,-1,-1,-1],"loss_changes":[1.2422351E6,3.375957E5,2.5326856E5,7.230819E4,8.494578E4,4.8399523E4,6.266275E4,3.2599188E4,1.21095E4,6.955125E3,2.9216867E4,1.4839409E3,1.9466242E4,9.164875E3,1.36991875E4,1.5722875E4,2.2699531E3,3.0179219E3,1.518793E3,8.98E2,1.1600403E3,4.4011133E2,5.6312217E3,7.016211E1,6.280398E2,2.0086284E3,6.728258E3,3.3148125E3,4.2939062E2,4.9125312E3,2.18325E3,0E0,0E0,0E0,0E0,0E0,0E0,0E0,0E0,0E0,0E0,0E0,0E0,0E0,0E0,0E0,0E0,0E0,0E0,0E0,0E0,0E0,0E0,0E0,0E0,0E0,0E0,0E0,0E0,0E0,0E0,0E0,0E0],"parents":[2147483647,0,0,1,1,2,2,3,3,4,4,5,5,6,6,7,7,8,8,9,9,10,10,11,11,12,12,13,13,14,14,15,15,16,16,17,17,18,18,19,19,20,20,21,21,22,22,23,23,24,24,25,25,26,26,27,27,28,28,29,29,30,30],"right_children":[2,4,6,8,10,12,14,16,18,20,22,24,26,28,30,32,34,36,38,40,42,44,46,48,50,52,54,56,58,60,62,-1,-1,-1,-1,-1,-1,-1,-1,-1,-1,-1,-1,-1,-1,-1,-1,-1,-1,-1,-1,-1,-1,-1,-1,-1,-1,-1,-1,-1,-1,-1,-1],"split_conditions":[3E0,3E0,2E0,1E0,1E0,4E0,4E0,2E0,2E0,4E0,2E0,3E0,4E0,4E0,4E0,1E0,1E0,2E0,1E0,2E0,2E0,4E0,2E0,4E0,4E0,2E0,1E0,4E0,2E0,4E0,4E0,-9.4971657E-1,-7.021963E-1,-6.7857563E-1,-5.414764E-1,-5.414764E-1,-4.1869974E-1,-4.1869974E-1,-3.3042377E-1,-3.3042377E-1,-2.4173012E-1,-2.4173012E-1,-1.530365E-1,-1.530365E-1,-6.4342864E-2,-6.4342864E-2,2.4350775E-2,2.4350775E-2,5.588398E-2,7.999881E-2,1.3564685E-1,1.3564685E-1,2.339073E-1,2.3985425E-1,3.4406167E-1,3.4406167E-1,4.432129E-1,4.432129E-1,5.423642E-1,5.423642E-1,6.715876E-1,6.90097E-1,8.1041044E-1],"split_indices":[8,6,2,7,7,6,5,0,5,5,5,7,5,1,7,8,5,6,8,2,0,0,3,1,5,7,1,3,5,8,2,0,0,0,0,0,0,0,0,0,0,0,0,0,0,0,0,0,0,0,0,0,0,0,0,0,0,0,0,0,0,0,0],"split_type":[0,0,0,0,0,0,0,0,0,0,0,0,0,0,0,0,0,0,0,0,0,0,0,0,0,0,0,0,0,0,0,0,0,0,0,0,0,0,0,0,0,0,0,0,0,0,0,0,0,0,0,0,0,0,0,0,0,0,0,0,0,0,0],"sum_hessian":[2.5632E4,1.375E4,1.1882E4,6.714E3,7.036E3,5.194E3,6.688E3,4.089E3,2.625E3,1.933E3,5.103E3,1.959E3,3.235E3,2.613E3,4.075E3,2.627E3,1.462E3,1.128E3,1.497E3,1.527E3,4.06E2,8.8E2,4.223E3,1.681E3,2.78E2,1.297E3,1.938E3,2.115E3,4.98E2,1.838E3,2.237E3,1.201E3,1.426E3,3.13E2,1.149E3,5.49E2,5.79E2,1.36E2,1.361E3,1.403E3,1.24E2,1.25E2,2.81E2,8.47E2,3.3E1,9.02E2,3.321E3,1.505E3,1.76E2,1.02E2,1.76E2,7.76E2,5.21E2,4.62E2,1.476E3,1.668E3,4.47E2,3.8E1,4.6E2,7.53E2,1.085E3,4.98E2,1.739E3],"tree_param":{"num_deleted":"0","num_feature":"10","num_nodes":"63","size_leaf_vector":"1"}},{"base_weights":[-6.400758E-2,-7.517411E0,5.815539E0,-1.2215206E1,-3.3944342E0,8.4067756E-1,1.0170392E1,-1.5684961E1,-9.170029E0,-7.793347E0,-8.615708E-1,-8.509362E-1,5.5055346E0,7.1792655E0,1.3799393E1,-1.8680883E1,-1.3807104E1,-1.1495676E1,-7.80482E0,-7.80482E0,-4.327459E0,-4.327459E0,-8.509362E-1,-4.254681E-2,1.4922587E0,2.327299E0,5.5055346E0,5.5055346E0,9.687249E0,1.2077687E1,1.5236741E1,-1.0192598E0,-8.1938726E-1,-7.408601E-1,-6.213748E-1,-6.213748E-1,-4.8251238E-1,-4.8251238E-1,-3.90241E-1,-3.90241E-1,-3.5182133E-1,-3.0330697E-1,-2.1637295E-1,-2.1637295E-1,-1.2945989E-1,-1.1835714E-1,-4.254681E-2,1.6033063E-2,1.16364956E-1,1.16364956E-1,1.4938468E-1,1.9582085E-1,2.7527675E-1,2.7527675E-1,3.5403508E-1,3.798196E-1,5.2446645E-1,5.2446645E-1,6.228637E-1,6.8286073E-1,7.764918E-1],"categories":[],"categories_nodes":[],"categories_segments":[],"categories_sizes":[],"default_left":[0,0,0,0,0,0,0,0,0,0,0,0,0,0,0,0,0,0,0,0,0,0,0,0,0,0,0,0,0,0,0,0,0,0,0,0,0,0,0,0,0,0,0,0,0,0,0,0,0,0,0,0,0,0,0,0,0,0,0,0,0],"id":19,"left_children":[1,3,5,7,9,11,13,15,17,19,21,23,25,27,29,31,33,35,37,39,41,43,45,-1,47,49,51,53,55,57,59,-1,-1,-1,-1,-1,-1,-1,-1,-1,-1,-1,-1,-1,-1,-1,-1,-1,-1,-1,-1,-1,-1,-1,-1,-1,-1,-1,-1,-1,-1],"loss_changes":[1.1196682E6,2.1818788E5,3.094296E5,5.5496875E4,6.686663E4,7.7395336E4,8.2571125E4,1.35818125E4,1.4705078E4,9.834516E3,1.8208455E4,1.4362586E4,7.1951875E3,1.955214E4,8.3289375E3,3.3591875E3,3.573125E3,4.7236562E3,7.7048047E2,3.600625E2,6.7930566E2,2.533E3,1.9510269E3,0E0,9.560537E3,1.2411182E2,1.4870938E3,2.52775E3,4.0221562E3,1.7265781E3,6.7903125E2,0E0,0E0,0E0,0E0,0E0,0E0,0E0,0E0,0E0,0E0,0E0,0E0,0E0,0E0,0E0,0E0,0E0,0E0,0E0,0E0,0E0,0E0,0E0,0E0,0E0,0E0,0E0,0E0,0E0,0E0],"parents":[2147483647,0,0,1,1,2,2,3,3,4,4,5,5,6,6,7,7,8,8,9,9,10,10,11,11,12,12,13,13,14,14,15,15,16,16,17,17,18,18,19,19,20,20,21,21,22,22,24,24,25,25,26,26,27,27,28,28,29,29,30,30],"right_children":[2,4,6,8,10,12,14,16,18,20,22,24,26,28,30,32,34,36,38,40,42,44,46,-1,48,50,52,54,56,58,60,-1,-1,-1,-1,-1,-1,-1,-1,-1,-1,-1,-1,-1,-1,-1,-1,-1,-1,-1,-1,-1,-1,-1,-1,-1,-1,-1,-1,-1,-1],"split_conditions":[3E0,2E0,2E0,2E0,2E0,4E0,4E0,1E0,2E0,2E0,3E0,4E0,1E0,4E0,4E0,1E0,1E0,1E0,1E0,1E0,1E0,2E0,1E0,-4.254681E-2,1E0,3E0,1E0,3E0,3E0,2E0,4E0,-1.0192598E0,-8.1938726E-1,-7.408601E-1,-6.213748E-1,-6.213748E-1,-4.8251238E-1,-4.8251238E-1,-3.90241E-1,-3.90241E-1,-3.5182133E-1,-3.0330697E-1,-2.1637295E-1,-2.1637295E-1,-1.2945989E-1,-1.1835714E-1,-4.254681E-2,1.6033063E-2,1.16364956E-1,1.16364956E-1,1.4938468E-1,1.9582085E-1,2.7527675E-1,2.7527675E-1,3.5403508E-1,3.798196E-1,5.2446645E-1,5.2446645E-1,6.228637E-1,6.8286073E-1,7.764918E-1],"split_indices":[5,9,2,4,8,8,8,3,3,2,6,4,1,9,2,6,2,2,5,2,3,2,2,0,1,6,6,1,3,4,1,0,0,0,0,0,0,0,0,0,0,0,0,0,0,0,0,0,0,0,0,0,0,0,0,0,0,0,0,0,0],"split_type":[0,0,0,0,0,0,0,0,0,0,0,0,0,0,0,0,0,0,0,0,0,0,0,0,0,0,0,0,0,0,0,0,0,0,0,0,0,0,0,0,0,0,0,0,0,0,0,0,0,0,0,0,0,0,0,0,0,0,0,0,0],"sum_hessian":[2.5548E4,1.1266E4,1.4282E4,5.265E3,6.001E3,6.667E3,7.615E3,2.459E3,2.806E3,2.192E3,3.809E3,4.809E3,1.858E3,4.176E3,3.439E3,9.44E2,1.515E3,1.467E3,1.339E3,1.699E3,4.93E2,1.139E3,2.67E3,2.194E3,2.615E3,4.16E2,1.442E3,2.388E3,1.788E3,1.569E3,1.87E3,5.37E2,4.07E2,1.157E3,3.58E2,9.21E2,5.46E2,2.1E2,1.129E3,9.87E2,7.12E2,6E1,4.33E2,8.55E2,2.84E2,8.48E2,1.822E3,7.85E2,1.83E3,1.2E2,2.96E2,2.6E2,1.182E3,1.358E3,1.03E3,4.1E2,1.378E3,7.3E1,1.496E3,2.93E2,1.577E3],"tree_param":{"num_deleted":"0","num_feature":"10","num_nodes":"61","size_leaf_vector":"1"}},{"base_weights":[-5.4128505E-2,-6.494303E0,6.219142E0,-1.1583972E1,-2.6308217E0,1.4619272E0,9.999875E0,-1.510676E1,-8.604922E0,-6.973653E0,-3.2324615E-1,-1.3758063E-1,5.5698857E0,6.3959756E0,1.2480122E1,-1.7984062E1,-1.303119E1,-1.1038244E1,-7.107397E0,-7.107397E0,-3.6484494E0,-3.6484494E0,-1.3758063E-1,-6.8790317E-3,1.9984615E0,2.7161527E0,5.7309012E0,5.7309012E0,9.181001E0,1.01142025E1,1.3629032E1,-9.880134E-1,-7.959338E-1,-7.7538127E-1,-5.9279203E-1,-5.9279203E-1,-4.5364103E-1,-4.5364103E-1,-3.5536987E-1,-3.5536987E-1,-2.7641365E-1,-2.6889616E-1,-1.8242247E-1,-1.8242247E-1,-9.465075E-2,-9.465075E-2,-6.8790317E-3,4.652202E-2,1.3580763E-1,1.3580763E-1,1.82813E-1,2.1117635E-1,2.8654507E-1,2.8654507E-1,3.7279755E-1,3.7279755E-1,4.7190243E-1,4.7190243E-1,5.935809E-1,6.0492224E-1,7.29075E-1],"categories":[],"categories_nodes":[],"categories_segments":[],"categories_sizes":[],"default_left":[0,0,0,0,0,0,0,0,0,0,0,0,0,0,0,0,0,0,0,0,0,0,0,0,0,0,0,0,0,0,0,0,0,0,0,0,0,0,0,0,0,0,0,0,0,0,0,0,0,0,0,0,0,0,0,0,0,0,0,0,0],"id":20,"left_children":[1,3,5,7,9,11,13,15,17,19,21,23,25,27,29,31,33,35,37,39,41,43,45,-1,47,49,51,53,55,57,59,-1,-1,-1,-1,-1,-1,-1,-1,-1,-1,-1,-1,-1,-1,-1,-1,-1,-1,-1,-1,-1,-1,-1,-1,-1,-1,-1,-1,-1,-1],"loss_changes":[1.03091125E6,2.4755706E5,2.324691E5,5.6886938E4,7.174105E4,4.991699E4,6.429575E4,1.4624125E4,1.669014E4,8.358492E3,2.6911555E4,9.330654E3,1.0243523E4,1.1011219E4,1.14555E4,3.5007188E3,4.5573594E3,4.5132656E3,1.2837109E3,1.8571094E3,6.027366E2,1.1981582E3,4.1819824E3,0E0,5.927825E3,3.1509521E1,2.548664E3,1.3439219E3,1.7581484E3,2.971375E3,4.004625E3,0E0,0E0,0E0,0E0,0E0,0E0,0E0,0E0,0E0,0E0,0E0,0E0,0E0,0E0,0E0,0E0,0E0,0E0,0E0,0E0,0E0,0E0,0E0,0E0,0E0,0E0,0E0,0E0,0E0,0E0],"parents":[2147483647,0,0,1,1,2,2,3,3,4,4,5,5,6,6,7,7,8,8,9,9,10,10,11,11,12,12,13,13,14,14,15,15,16,16,17,17,18,18,19,19,20,20,21,21,22,22,24,24,25,25,26,26,27,27,28,28,29,29,30,30],"right_children":[2,4,6,8,10,12,14,16,18,20,22,24,26,28,30,32,34,36,38,40,42,44,46,-1,48,50,52,54,56,58,60,-1,-1,-1,-1,-1,-1,-1,-1,-1,-1,-1,-1,-1,-1,-1,-1,-1,-1,-1,-1,-1,-1,-1,-1,-1,-1,-1,-1,-1,-1],"split_conditions":[3E0,2E0,2E0,2E0,3E0,4E0,4E0,1E0,2E0,2E0,2E0,4E0,1E0,4E0,4E0,1E0,1E0,1E0,1E0,1E0,1E0,4E0,2E0,-6.8790317E-3,1E0,1E0,1E0,4E0,3E0,4E0,4E0,-9.880134E-1,-7.959338E-1,-7.7538127E-1,-5.9279203E-1,-5.9279203E-1,-4.5364103E-1,-4.5364103E-1,-3.5536987E-1,-3.5536987E-1,-2.7641365E-1,-2.6889616E-1,-1.8242247E-1,-1.8242247E-1,-9.465075E-2,-9.465075E-2,-6.8790317E-3,4.652202E-2,1.3580763E-1,1.3580763E-1,1.82813E-1,2.1117635E-1,2.8654507E-1,2.8654507E-1,3.7279755E-1,3.7279755E-1,4.7190243E-1,4.7190243E-1,5.935809E-1,6.0492224E-1,7.29075E-1],"split_indices":[0,9,2,4,4,8,5,8,3,2,3,4,1,9,8,4,5,1,5,2,3,5,5,0,1,2,4,8,8,1,2,0,0,0,0,0,0,0,0,0,0,0,0,0,0,0,0,0,0,0,0,0,0,0,0,0,0,0,0,0,0],"split_type":[0,0,0,0,0,0,0,0,0,0,0,0,0,0,0,0,0,0,0,0,0,0,0,0,0,0,0,0,0,0,0,0,0,0,0,0,0,0,0,0,0,0,0,0,0,0,0,0,0,0,0,0,0,0,0,0,0,0,0,0,0],"sum_hessian":[2.5515E4,1.259E4,1.2925E4,5.432E3,7.158E3,5.724E3,7.201E3,2.487E3,2.945E3,2.483E3,4.675E3,3.743E3,1.981E3,2.937E3,4.264E3,1.039E3,1.448E3,1.51E3,1.435E3,2.064E3,4.19E2,1.221E3,3.454E3,1.699E3,2.044E3,4.52E2,1.529E3,1.901E3,1.036E3,1.397E3,2.867E3,5.54E2,4.85E2,4.6E2,9.88E2,1.044E3,4.66E2,1.35E2,1.3E3,1.3E3,7.64E2,2.7E1,3.92E2,1.009E3,2.12E2,4.2E2,3.034E3,6.06E2,1.438E3,4.09E2,4.3E1,2.97E2,1.232E3,1.671E3,2.3E2,2.18E2,8.18E2,8.6E2,5.37E2,1.105E3,1.762E3],"tree_param":{"num_deleted":"0","num_feature":"10","num_nodes":"61","size_leaf_vector":"1"}},{"base_weights":[-1.7709043E-2,-5.7054853E0,6.450303E0,-1.0745027E1,-1.8078446E0,3.7240887E-1,9.010586E0,-1.3999845E1,-7.9566293E0,-4.898533E0,3.7240887E-1,3.7240887E-1,4.619857E0,6.376153E0,1.1650994E1,-1.6625048E1,-1.2224431E1,-1.0183123E1,-6.276436E0,-6.276436E0,-2.272745E0,-2.263062E0,3.7240887E-1,3.7240887E-1,2.4961329E0,2.4961329E0,4.6914973E0,4.6914973E0,8.640943E0,9.984784E0,1.3786961E1,-8.9155334E-1,-7.49168E-1,-7.21237E-1,-5.639973E-1,-5.4891187E-1,-4.1148898E-1,-3.998228E-1,-3.138218E-1,-3.138218E-1,-2.1372953E-1,-2.1372953E-1,-1.131531E-1,-1.131531E-1,-4.726633E-2,-4.726633E-2,1.8620444E-2,1.8620444E-2,7.1713544E-2,7.1713544E-2,1.2480664E-1,1.2480664E-1,1.7969076E-1,1.7969076E-1,2.3457487E-1,2.3457487E-1,3.1886005E-1,3.33311E-1,4.5067868E-1,4.5067868E-1,5.523199E-1,5.942936E-1,7.0019287E-1],"categories":[],"categories_nodes":[],"categories_segments":[],"categories_sizes":[],"default_left":[0,0,0,0,0,0,0,0,0,0,0,0,0,0,0,0,0,0,0,0,0,0,0,0,0,0,0,0,0,0,0,0,0,0,0,0,0,0,0,0,0,0,0,0,0,0,0,0,0,0,0,0,0,0,0,0,0,0,0,0,0,0,0],"id":21,"left_children":[1,3,5,7,9,11,13,15,17,19,21,23,25,27,29,31,33,35,37,39,41,43,45,47,49,51,53,55,57,59,61,-1,-1,-1,-1,-1,-1,-1,-1,-1,-1,-1,-1,-1,-1,-1,-1,-1,-1,-1,-1,-1,-1,-1,-1,-1,-1,-1,-1,-1,-1,-1,-1],"loss_changes":[9.35387E5,2.6572156E5,1.916351E5,5.3435312E4,7.897378E4,1.3043372E4,5.8759312E4,1.2478875E4,1.37850625E4,1.920714E4,8.60823E3,2.920956E3,2.401457E3,2.019725E4,1.48919375E4,1.9008438E3,3.8222812E3,4.616703E3,2.362879E3,4.549633E3,4.6214756E3,3.5766797E2,7.8852295E2,6.2525635E2,7.8339233E2,1.9145227E2,3.2814648E2,2.2967305E3,3.8738438E3,4.719125E3,7.5646875E2,0E0,0E0,0E0,0E0,0E0,0E0,0E0,0E0,0E0,0E0,0E0,0E0,0E0,0E0,0E0,0E0,0E0,0E0,0E0,0E0,0E0,0E0,0E0,0E0,0E0,0E0,0E0,0E0,0E0,0E0,0E0,0E0],"parents":[2147483647,0,0,1,1,2,2,3,3,4,4,5,5,6,6,7,7,8,8,9,9,10,10,11,11,12,12,13,13,14,14,15,15,16,16,17,17,18,18,19,19,20,20,21,21,22,22,23,23,24,24,25,25,26,26,27,27,28,28,29,29,30,30],"right_children":[2,4,6,8,10,12,14,16,18,20,22,24,26,28,30,32,34,36,38,40,42,44,46,48,50,52,54,56,58,60,62,-1,-1,-1,-1,-1,-1,-1,-1,-1,-1,-1,-1,-1,-1,-1,-1,-1,-1,-1,-1,-1,-1,-1,-1,-1,-1,-1,-1,-1,-1,-1,-1],"split_conditions":[2E0,2E0,3E0,2E0,4E0,3E0,4E0,1E0,2E0,1E0,2E0,3E0,2E0,3E0,4E0,1E0,1E0,1E0,1E0,4E0,2E0,1E0,2E0,4E0,4E0,4E0,3E0,4E0,4E0,1E0,4E0,-8.9155334E-1,-7.49168E-1,-7.21237E-1,-5.639973E-1,-5.4891187E-1,-4.1148898E-1,-3.998228E-1,-3.138218E-1,-3.138218E-1,-2.1372953E-1,-2.1372953E-1,-1.131531E-1,-1.131531E-1,-4.726633E-2,-4.726633E-2,1.8620444E-2,1.8620444E-2,7.1713544E-2,7.1713544E-2,1.2480664E-1,1.2480664E-1,1.7969076E-1,1.7969076E-1,2.3457487E-1,2.3457487E-1,3.1886005E-1,3.33311E-1,4.5067868E-1,4.5067868E-1,5.523199E-1,5.942936E-1,7.0019287E-1],"split_indices":[7,8,3,4,4,2,8,3,5,2,5,8,8,2,2,5,5,2,1,3,5,2,3,5,4,5,5,5,6,2,5,0,0,0,0,0,0,0,0,0,0,0,0,0,0,0,0,0,0,0,0,0,0,0,0,0,0,0,0,0,0,0,0],"split_type":[0,0,0,0,0,0,0,0,0,0,0,0,0,0,0,0,0,0,0,0,0,0,0,0,0,0,0,0,0,0,0,0,0,0,0,0,0,0,0,0,0,0,0,0,0,0,0,0,0,0,0,0,0,0,0,0,0,0,0,0,0,0,0],"sum_hessian":[2.5424E4,1.3528E4,1.1896E4,5.899E3,7.629E3,3.439E3,8.457E3,2.72E3,3.179E3,4.147E3,3.482E3,2.717E3,7.22E2,4.235E3,4.222E3,1.094E3,1.626E3,1.493E3,1.686E3,2.456E3,1.691E3,5.43E2,2.939E3,2.264E3,4.53E2,1.93E2,5.29E2,2.169E3,2.066E3,2.375E3,1.847E3,6.25E2,4.69E2,4.23E2,1.203E3,8.81E2,6.12E2,8.11E2,8.75E2,2.008E3,4.48E2,4.43E2,1.248E3,4E2,1.43E2,2.35E2,2.704E3,1.998E3,2.66E2,2.17E2,2.36E2,1.51E2,4.2E1,1.34E2,3.95E2,1.354E3,8.15E2,4.89E2,1.577E3,6.72E2,1.703E3,1.59E2,1.688E3],"tree_param":{"num_deleted":"0","num_feature":"10","num_nodes":"63","size_leaf_vector":"1"}},{"base_weights":[-8.884812E-2,-6.5854664E0,5.0661383E0,-1.1151145E1,-3.3206892E0,-2.3915017E-1,8.158258E0,-1.3377938E1,-7.5653067E0,-7.0840855E0,-1.078637E0,-7.5966406E-1,3.6865327E0,5.41061E0,1.1073673E1,-1.584071E1,-1.15826025E1,-1.0471622E1,-7.235917E0,-7.235917E0,-4.0813613E0,-4.0813613E0,-7.5966406E-1,-7.5966406E-1,9.0338093E-1,1.4634343E0,3.9595542E0,3.9595542E0,6.722982E0,8.242142E0,1.1596771E1,-8.7547094E-1,-7.1605057E-1,-6.466412E-1,-5.2358115E-1,-5.2358115E-1,-4.4268847E-1,-4.4268847E-1,-3.6179587E-1,-3.6179587E-1,-2.8293195E-1,-2.8293195E-1,-2.0406806E-1,-2.0406806E-1,-1.4329216E-1,-1.2102564E-1,-3.7983205E-2,-3.7983205E-2,3.592922E-3,3.592922E-3,7.317172E-2,7.317172E-2,1.3471141E-1,1.3557471E-1,1.979777E-1,1.979777E-1,2.1111117E-1,2.670634E-1,3.847166E-1,4.1210708E-1,4.678084E-1,4.9597284E-1,6.249162E-1],"categories":[],"categories_nodes":[],"categories_segments":[],"categories_sizes":[],"default_left":[0,0,0,0,0,0,0,0,0,0,0,0,0,0,0,0,0,0,0,0,0,0,0,0,0,0,0,0,0,0,0,0,0,0,0,0,0,0,0,0,0,0,0,0,0,0,0,0,0,0,0,0,0,0,0,0,0,0,0,0,0,0,0],"id":22,"left_children":[1,3,5,7,9,11,13,15,17,19,21,23,25,27,29,31,33,35,37,39,41,43,45,47,49,51,53,55,57,59,61,-1,-1,-1,-1,-1,-1,-1,-1,-1,-1,-1,-1,-1,-1,-1,-1,-1,-1,-1,-1,-1,-1,-1,-1,-1,-1,-1,-1,-1,-1,-1,-1],"loss_changes":[8.539274E5,1.6811672E5,2.3322588E5,3.7451812E4,5.5504164E4,3.2266615E4,7.1890875E4,1.2638906E4,6.205078E3,9.200539E3,1.6621848E4,3.8631328E3,7.998795E3,1.5024516E4,9.912375E3,2.843125E3,3.6125312E3,9.780859E1,1.6995078E3,5.0566406E2,1.0617773E3,1.220002E3,2.5197861E3,1.7888574E2,3.5962317E3,1.3873999E2,1.1098164E3,3.6964844E1,7.042797E3,1.00853516E2,6.397125E3,0E0,0E0,0E0,0E0,0E0,0E0,0E0,0E0,0E0,0E0,0E0,0E0,0E0,0E0,0E0,0E0,0E0,0E0,0E0,0E0,0E0,0E0,0E0,0E0,0E0,0E0,0E0,0E0,0E0,0E0,0E0,0E0],"parents":[2147483647,0,0,1,1,2,2,3,3,4,4,5,5,6,6,7,7,8,8,9,9,10,10,11,11,12,12,13,13,14,14,15,15,16,16,17,17,18,18,19,19,20,20,21,21,22,22,23,23,24,24,25,25,26,26,27,27,28,28,29,29,30,30],"right_children":[2,4,6,8,10,12,14,16,18,20,22,24,26,28,30,32,34,36,38,40,42,44,46,48,50,52,54,56,58,60,62,-1,-1,-1,-1,-1,-1,-1,-1,-1,-1,-1,-1,-1,-1,-1,-1,-1,-1,-1,-1,-1,-1,-1,-1,-1,-1,-1,-1,-1,-1,-1,-1],"split_conditions":[3E0,2E0,2E0,1E0,1E0,4E0,4E0,1E0,1E0,4E0,3E0,1E0,2E0,4E0,4E0,1E0,2E0,2E0,2E0,4E0,1E0,2E0,2E0,4E0,3E0,4E0,1E0,3E0,3E0,1E0,4E0,-8.7547094E-1,-7.1605057E-1,-6.466412E-1,-5.2358115E-1,-5.2358115E-1,-4.4268847E-1,-4.4268847E-1,-3.6179587E-1,-3.6179587E-1,-2.8293195E-1,-2.8293195E-1,-2.0406806E-1,-2.0406806E-1,-1.4329216E-1,-1.2102564E-1,-3.7983205E-2,-3.7983205E-2,3.592922E-3,3.592922E-3,7.317172E-2,7.317172E-2,1.3471141E-1,1.3557471E-1,1.979777E-1,1.979777E-1,2.1111117E-1,2.670634E-1,3.847166E-1,4.1210708E-1,4.678084E-1,4.9597284E-1,6.249162E-1],"split_indices":[5,0,7,7,7,3,0,8,3,6,6,7,6,6,6,6,6,8,6,9,9,6,8,1,8,1,9,8,3,6,1,0,0,0,0,0,0,0,0,0,0,0,0,0,0,0,0,0,0,0,0,0,0,0,0,0,0,0,0,0,0,0,0],"split_type":[0,0,0,0,0,0,0,0,0,0,0,0,0,0,0,0,0,0,0,0,0,0,0,0,0,0,0,0,0,0,0,0,0,0,0,0,0,0,0,0,0,0,0,0,0,0,0,0,0,0,0,0,0,0,0,0,0,0,0,0,0,0,0],"sum_hessian":[2.5496E4,1.128E4,1.4216E4,4.702E3,6.578E3,5.235E3,8.981E3,2.899E3,1.803E3,2.455E3,4.123E3,3.532E3,1.703E3,4.625E3,4.356E3,1.219E3,1.68E3,3.33E2,1.47E3,1.815E3,6.4E2,1.33E3,2.793E3,2.136E3,1.396E3,3.83E2,1.32E3,1.381E3,3.244E3,3.66E2,3.99E3,5.76E2,6.43E2,9.56E2,7.24E2,3.03E2,3E1,4.05E2,1.065E3,1.669E3,1.46E2,1.67E2,4.73E2,4.94E2,8.36E2,5.41E2,2.252E3,2.006E3,1.3E2,8.66E2,5.3E2,2.91E2,9.2E1,1.49E2,1.171E3,6.19E2,7.62E2,8.49E2,2.395E3,2.31E2,1.35E2,1.326E3,2.664E3],"tree_param":{"num_deleted":"0","num_feature":"10","num_nodes":"63","size_leaf_vector":"1"}},{"base_weights":[-3.8808E-2,-5.728512E0,5.2892737E0,-9.79298E0,-2.105795E0,1.8818479E0,8.892038E0,-1.26244955E1,-7.157503E0,-5.873315E0,-2.1961904E-1,4.425931E-3,5.386943E0,5.386943E0,1.0718977E1,-1.5634077E1,-1.1302918E1,-9.058695E0,-5.9493876E0,-5.9493876E0,-3.4101334E0,-3.0464668E0,-2.1961904E-1,-2.1961904E-1,2.6636367E0,2.6956844E0,5.386943E0,5.386943E0,7.7684836E0,8.579552E0,1.1908215E1,-8.4007484E-1,-6.759619E-1,-6.734249E-1,-5.190341E-1,-4.9454996E-1,-3.7520206E-1,-3.7520206E-1,-2.9746938E-1,-2.9746938E-1,-2.3398803E-1,-2.3398803E-1,-1.5232335E-1,-1.5232335E-1,-8.165215E-2,-8.165215E-2,-1.0980952E-2,-1.0980952E-2,4.0718444E-2,6.1100442E-2,1.3478422E-1,1.3478422E-1,2.0206569E-1,2.0206569E-1,2.6934716E-1,2.6934716E-1,3.2888564E-1,3.2888564E-1,4.0264797E-1,4.0264797E-1,5.1219416E-1,5.26253E-1,6.319852E-1],"categories":[],"categories_nodes":[],"categories_segments":[],"categories_sizes":[],"default_left":[0,0,0,0,0,0,0,0,0,0,0,0,0,0,0,0,0,0,0,0,0,0,0,0,0,0,0,0,0,0,0,0,0,0,0,0,0,0,0,0,0,0,0,0,0,0,0,0,0,0,0,0,0,0,0,0,0,0,0,0,0,0,0],"id":23,"left_children":[1,3,5,7,9,11,13,15,17,19,21,23,25,27,29,31,33,35,37,39,41,43,45,47,49,51,53,55,57,59,61,-1,-1,-1,-1,-1,-1,-1,-1,-1,-1,-1,-1,-1,-1,-1,-1,-1,-1,-1,-1,-1,-1,-1,-1,-1,-1,-1,-1,-1,-1,-1,-1],"loss_changes":[7.80465E5,1.8329838E5,1.6319472E5,4.36915E4,5.5240406E4,5.2698047E4,4.4993062E4,1.1067375E4,1.1284641E4,5.4632344E3,1.2626524E4,1.6497527E4,4.738414E3,3.1868672E3,1.1031656E4,1.8961562E3,3.8518594E3,4.7308594E3,1.00451953E3,8.071797E2,1.620376E3,3.974629E2,2.481925E3,7.2803E2,5.214077E3,7.872949E1,7.912031E2,7.3423047E2,1.0991133E3,2.6459297E3,2.7099688E3,0E0,0E0,0E0,0E0,0E0,0E0,0E0,0E0,0E0,0E0,0E0,0E0,0E0,0E0,0E0,0E0,0E0,0E0,0E0,0E0,0E0,0E0,0E0,0E0,0E0,0E0,0E0,0E0,0E0,0E0,0E0,0E0],"parents":[2147483647,0,0,1,1,2,2,3,3,4,4,5,5,6,6,7,7,8,8,9,9,10,10,11,11,12,12,13,13,14,14,15,15,16,16,17,17,18,18,19,19,20,20,21,21,22,22,23,23,24,24,25,25,26,26,27,27,28,28,29,29,30,30],"right_children":[2,4,6,8,10,12,14,16,18,20,22,24,26,28,30,32,34,36,38,40,42,44,46,48,50,52,54,56,58,60,62,-1,-1,-1,-1,-1,-1,-1,-1,-1,-1,-1,-1,-1,-1,-1,-1,-1,-1,-1,-1,-1,-1,-1,-1,-1,-1,-1,-1,-1,-1,-1,-1],"split_conditions":[2E0,2E0,4E0,2E0,3E0,3E0,2E0,1E0,1E0,1E0,2E0,3E0,2E0,1E0,4E0,1E0,1E0,2E0,1E0,4E0,2E0,4E0,2E0,3E0,1E0,4E0,3E0,4E0,4E0,4E0,4E0,-8.4007484E-1,-6.759619E-1,-6.734249E-1,-5.190341E-1,-4.9454996E-1,-3.7520206E-1,-3.7520206E-1,-2.9746938E-1,-2.9746938E-1,-2.3398803E-1,-2.3398803E-1,-1.5232335E-1,-1.5232335E-1,-8.165215E-2,-8.165215E-2,-1.0980952E-2,-1.0980952E-2,4.0718444E-2,6.1100442E-2,1.3478422E-1,1.3478422E-1,2.0206569E-1,2.0206569E-1,2.6934716E-1,2.6934716E-1,3.2888564E-1,3.2888564E-1,4.0264797E-1,4.0264797E-1,5.1219416E-1,5.26253E-1,6.319852E-1],"split_indices":[1,8,5,6,6,2,2,0,2,7,5,8,8,2,8,3,5,0,5,3,5,3,0,0,2,0,1,7,0,7,7,0,0,0,0,0,0,0,0,0,0,0,0,0,0,0,0,0,0,0,0,0,0,0,0,0,0,0,0,0,0,0,0],"split_type":[0,0,0,0,0,0,0,0,0,0,0,0,0,0,0,0,0,0,0,0,0,0,0,0,0,0,0,0,0,0,0,0,0,0,0,0,0,0,0,0,0,0,0,0,0,0,0,0,0,0,0,0,0,0,0,0,0,0,0,0,0,0,0],"sum_hessian":[2.5743E4,1.2449E4,1.3294E4,5.866E3,6.583E3,6.833E3,6.461E3,2.826E3,3.04E3,2.46E3,4.123E3,4.717E3,2.116E3,2.086E3,4.375E3,8.59E2,1.967E3,1.629E3,1.411E3,1.606E3,8.54E2,7.35E2,3.388E3,2.705E3,2.012E3,2.08E2,1.908E3,1.52E3,5.66E2,1.566E3,2.809E3,5.49E2,3.1E2,5.77E2,1.39E3,9E2,7.29E2,1.31E2,1.28E3,1.344E3,2.62E2,2.73E2,5.81E2,6.22E2,1.13E2,3.71E2,3.017E3,2.025E3,6.8E2,8.16E2,1.196E3,1.91E2,1.7E1,3.1E2,1.598E3,1.112E3,4.08E2,2.53E2,3.13E2,9.94E2,5.72E2,9.77E2,1.832E3],"tree_param":{"num_deleted":"0","num_feature":"10","num_nodes":"63","size_leaf_vector":"1"}},{"base_weights":[-1.18497886E-1,-5.471953E0,5.1778193E0,-9.5008745E0,-2.069543E0,1.2081205E0,8.330434E0,-1.1483642E1,-5.9713097E0,-5.7852087E0,-1.4706683E-1,-1.4706683E-1,4.769277E0,5.5990353E0,1.0653926E1,-1.40544615E1,-1.0079327E1,-8.727476E0,-5.7852087E0,-5.7852087E0,-2.966138E0,-2.966138E0,-1.4706683E-1,-1.4706683E-1,1.8355793E0,2.3111053E0,4.769277E0,4.769277E0,8.09104E0,8.56973E0,1.1340919E1,-7.7371615E-1,-6.3600844E-1,-5.77045E-1,-4.363738E-1,-4.363738E-1,-3.6281714E-1,-3.6281714E-1,-2.8926045E-1,-2.8926045E-1,-2.1878366E-1,-2.0019813E-1,-1.4830689E-1,-1.4830689E-1,-7.783012E-2,-7.783012E-2,-7.3533417E-3,-7.3533417E-3,4.221281E-2,4.221281E-2,1.15555264E-1,1.15555264E-1,1.7700957E-1,1.7700957E-1,2.3846386E-1,2.3846386E-1,3.2150793E-1,3.2150793E-1,4.06324E-1,4.06324E-1,4.9776623E-1,5.162673E-1,6.014233E-1],"categories":[],"categories_nodes":[],"categories_segments":[],"categories_sizes":[],"default_left":[0,0,0,0,0,0,0,0,0,0,0,0,0,0,0,0,0,0,0,0,0,0,0,0,0,0,0,0,0,0,0,0,0,0,0,0,0,0,0,0,0,0,0,0,0,0,0,0,0,0,0,0,0,0,0,0,0,0,0,0,0,0,0],"id":24,"left_children":[1,3,5,7,9,11,13,15,17,19,21,23,25,27,29,31,33,35,37,39,41,43,45,47,49,51,53,55,57,59,61,-1,-1,-1,-1,-1,-1,-1,-1,-1,-1,-1,-1,-1,-1,-1,-1,-1,-1,-1,-1,-1,-1,-1,-1,-1,-1,-1,-1,-1,-1,-1,-1],"loss_changes":[7.238956E5,1.7403134E5,1.6060656E5,4.06125E4,5.7501727E4,4.886622E4,4.5336125E4,1.3292094E4,5.257047E3,4.9834688E3,1.1502718E4,5.192678E3,4.9421133E3,1.0997164E4,5.4353125E3,2.2887812E3,6.3319375E3,1.3066406E1,1.4921836E3,1.36325E3,3.0355615E2,3.0964453E2,3.120857E3,6.614944E2,2.4593135E3,2.1913574E2,1.2441133E3,1.7736602E3,1.3324375E3,9.568672E2,1.9028438E3,0E0,0E0,0E0,0E0,0E0,0E0,0E0,0E0,0E0,0E0,0E0,0E0,0E0,0E0,0E0,0E0,0E0,0E0,0E0,0E0,0E0,0E0,0E0,0E0,0E0,0E0,0E0,0E0,0E0,0E0,0E0,0E0],"parents":[2147483647,0,0,1,1,2,2,3,3,4,4,5,5,6,6,7,7,8,8,9,9,10,10,11,11,12,12,13,13,14,14,15,15,16,16,17,17,18,18,19,19,20,20,21,21,22,22,23,23,24,24,25,25,26,26,27,27,28,28,29,29,30,30],"right_children":[2,4,6,8,10,12,14,16,18,20,22,24,26,28,30,32,34,36,38,40,42,44,46,48,50,52,54,56,58,60,62,-1,-1,-1,-1,-1,-1,-1,-1,-1,-1,-1,-1,-1,-1,-1,-1,-1,-1,-1,-1,-1,-1,-1,-1,-1,-1,-1,-1,-1,-1,-1,-1],"split_conditions":[4E0,2E0,2E0,1E0,1E0,4E0,4E0,1E0,1E0,4E0,2E0,4E0,2E0,4E0,4E0,1E0,2E0,3E0,2E0,2E0,4E0,2E0,1E0,4E0,2E0,1E0,2E0,4E0,2E0,4E0,4E0,-7.7371615E-1,-6.3600844E-1,-5.77045E-1,-4.363738E-1,-4.363738E-1,-3.6281714E-1,-3.6281714E-1,-2.8926045E-1,-2.8926045E-1,-2.1878366E-1,-2.0019813E-1,-1.4830689E-1,-1.4830689E-1,-7.783012E-2,-7.783012E-2,-7.3533417E-3,-7.3533417E-3,4.221281E-2,4.221281E-2,1.15555264E-1,1.15555264E-1,1.7700957E-1,1.7700957E-1,2.3846386E-1,2.3846386E-1,3.2150793E-1,3.2150793E-1,4.06324E-1,4.06324E-1,4.9776623E-1,5.162673E-1,6.014233E-1],"split_indices":[4,8,2,2,7,3,3,5,3,9,5,9,9,5,8,4,4,2,6,2,3,2,2,8,3,2,5,7,8,7,2,0,0,0,0,0,0,0,0,0,0,0,0,0,0,0,0,0,0,0,0,0,0,0,0,0,0,0,0,0,0,0,0],"split_type":[0,0,0,0,0,0,0,0,0,0,0,0,0,0,0,0,0,0,0,0,0,0,0,0,0,0,0,0,0,0,0,0,0,0,0,0,0,0,0,0,0,0,0,0,0,0,0,0,0,0,0,0,0,0,0,0,0,0,0,0,0,0,0],"sum_hessian":[2.5529E4,1.2696E4,1.2833E4,5.812E3,6.884E3,5.681E3,7.152E3,3.72E3,2.092E3,2.538E3,4.346E3,3.607E3,2.074E3,3.289E3,3.863E3,1.311E3,2.409E3,3.34E2,1.758E3,2.008E3,5.3E2,6.66E2,3.68E3,2.287E3,1.32E3,2.25E2,1.849E3,2.086E3,1.203E3,9.61E2,2.902E3,6.3E2,6.81E2,1.365E3,1.044E3,3.21E2,1.3E1,4.25E2,1.333E3,1.885E3,1.23E2,2.89E2,2.41E2,5.21E2,1.45E2,8.23E2,2.857E3,2.154E3,1.33E2,3.01E2,1.019E3,1.76E2,4.9E1,1.6E2,1.689E3,1.733E3,3.53E2,1.04E2,1.099E3,6.4E2,3.21E2,1.178E3,1.724E3],"tree_param":{"num_deleted":"0","num_feature":"10","num_nodes":"63","size_leaf_vector":"1"}},{"base_weights":[-8.184979E-3,-5.808749E0,4.4423704E0,-9.570838E0,-2.5631661E0,7.122672E-1,7.4133167E0,-1.133825E1,-6.07468E0,-5.66014E0,-6.831894E-1,-6.831894E-1,4.062792E0,4.8650513E0,1.002809E1,-1.3604964E1,-9.781358E0,-8.706465E0,-6.0670023E0,-6.0670023E0,-3.1716647E0,-3.142445E0,-6.831894E-1,-6.831894E-1,9.3578714E-1,1.6898012E0,4.062792E0,4.062792E0,7.4465704E0,8.62226E0,1.0829427E1,-7.707023E-1,-6.1362237E-1,-5.846581E-1,-4.3532324E-1,-4.3532324E-1,-3.693367E-1,-3.693367E-1,-3.0335012E-1,-3.0335012E-1,-2.3096667E-1,-2.3096667E-1,-1.5858324E-1,-1.5858324E-1,-9.564086E-2,-9.564086E-2,-3.415947E-2,-3.415947E-2,-1.5857479E-2,6.314944E-3,8.449006E-2,8.449006E-2,1.4381483E-1,1.4381483E-1,2.0313959E-1,2.0313959E-1,2.7773243E-1,2.8773406E-1,3.7232852E-1,3.7232852E-1,4.7022152E-1,4.8629218E-1,5.5253947E-1],"categories":[],"categories_nodes":[],"categories_segments":[],"categories_sizes":[],"default_left":[0,0,0,0,0,0,0,0,0,0,0,0,0,0,0,0,0,0,0,0,0,0,0,0,0,0,0,0,0,0,0,0,0,0,0,0,0,0,0,0,0,0,0,0,0,0,0,0,0,0,0,0,0,0,0,0,0,0,0,0,0,0,0],"id":25,"left_children":[1,3,5,7,9,11,13,15,17,19,21,23,25,27,29,31,33,35,37,39,41,43,45,47,49,51,53,55,57,59,61,-1,-1,-1,-1,-1,-1,-1,-1,-1,-1,-1,-1,-1,-1,-1,-1,-1,-1,-1,-1,-1,-1,-1,-1,-1,-1,-1,-1,-1,-1,-1,-1],"loss_changes":[6.561068E5,1.3470247E5,1.5936403E5,3.1506656E4,3.9324234E4,4.772601E4,5.3289688E4,1.1840906E4,3.2469453E3,9.204531E3,6.712745E3,5.438284E3,8.0924453E3,1.2571344E4,4.3564375E3,3.1350938E3,5.34525E3,5.3339844E0,1.4350938E3,3.893125E2,1.5980464E3,1.0385059E3,1.3547837E3,3.4189453E0,4.0483608E3,2.9318848E2,1.0349805E3,3.248504E3,1.0839531E3,1.3095625E3,1.1487188E3,0E0,0E0,0E0,0E0,0E0,0E0,0E0,0E0,0E0,0E0,0E0,0E0,0E0,0E0,0E0,0E0,0E0,0E0,0E0,0E0,0E0,0E0,0E0,0E0,0E0,0E0,0E0,0E0,0E0,0E0,0E0,0E0],"parents":[2147483647,0,0,1,1,2,2,3,3,4,4,5,5,6,6,7,7,8,8,9,9,10,10,11,11,12,12,13,13,14,14,15,15,16,16,17,17,18,18,19,19,20,20,21,21,22,22,23,23,24,24,25,25,26,26,27,27,28,28,29,29,30,30],"right_children":[2,4,6,8,10,12,14,16,18,20,22,24,26,28,30,32,34,36,38,40,42,44,46,48,50,52,54,56,58,60,62,-1,-1,-1,-1,-1,-1,-1,-1,-1,-1,-1,-1,-1,-1,-1,-1,-1,-1,-1,-1,-1,-1,-1,-1,-1,-1,-1,-1,-1,-1,-1,-1],"split_conditions":[3E0,2E0,2E0,1E0,1E0,4E0,4E0,1E0,1E0,4E0,3E0,4E0,1E0,4E0,4E0,1E0,1E0,2E0,2E0,4E0,2E0,2E0,2E0,4E0,2E0,1E0,1E0,3E0,2E0,4E0,1E0,-7.707023E-1,-6.1362237E-1,-5.846581E-1,-4.3532324E-1,-4.3532324E-1,-3.693367E-1,-3.693367E-1,-3.0335012E-1,-3.0335012E-1,-2.3096667E-1,-2.3096667E-1,-1.5858324E-1,-1.5858324E-1,-9.564086E-2,-9.564086E-2,-3.415947E-2,-3.415947E-2,-1.5857479E-2,6.314944E-3,8.449006E-2,8.449006E-2,1.4381483E-1,1.4381483E-1,2.0313959E-1,2.0313959E-1,2.7773243E-1,2.8773406E-1,3.7232852E-1,3.7232852E-1,4.7022152E-1,4.8629218E-1,5.5253947E-1],"split_indices":[9,3,2,2,2,3,3,8,5,6,6,6,6,5,1,6,9,2,6,8,5,2,5,7,3,2,1,8,3,8,6,0,0,0,0,0,0,0,0,0,0,0,0,0,0,0,0,0,0,0,0,0,0,0,0,0,0,0,0,0,0,0,0],"split_type":[0,0,0,0,0,0,0,0,0,0,0,0,0,0,0,0,0,0,0,0,0,0,0,0,0,0,0,0,0,0,0,0,0,0,0,0,0,0,0,0,0,0,0,0,0,0,0,0,0,0,0,0,0,0,0,0,0,0,0,0,0,0,0],"sum_hessian":[2.5413E4,1.1033E4,1.438E4,5.109E3,5.924E3,6.376E3,8.004E3,3.392E3,1.717E3,2.432E3,3.492E3,4.041E3,2.335E3,4.055E3,3.949E3,1.378E3,2.014E3,2.25E2,1.492E3,1.555E3,8.77E2,1.109E3,2.383E3,1.967E3,2.074E3,5.45E2,1.79E3,2.897E3,1.158E3,1.438E3,2.511E3,5.8E2,7.98E2,8.45E2,1.169E3,1.9E2,3.5E1,4E2,1.092E3,1.479E3,7.6E1,2.1E2,6.67E2,7.67E2,3.42E2,2.98E2,2.085E3,1.939E3,2.8E1,4.64E2,1.61E3,4.81E2,6.4E1,2.95E2,1.495E3,1.431E3,1.466E3,1.05E2,1.053E3,5.64E2,8.74E2,6.1E1,2.45E3],"tree_param":{"num_deleted":"0","num_feature":"10","num_nodes":"63","size_leaf_vector":"1"}},{"base_weights":[-8.355086E-2,-4.6446257E0,5.165611E0,-8.765594E0,-1.7561896E0,7.83003E-1,7.4059076E0,-1.0832021E1,-5.941296E0,-5.2608914E0,2.3809445E-4,2.6049256E-1,2.8668075E0,5.049055E0,9.185453E0,-1.3414487E1,-9.3553705E0,-8.071465E0,-5.2608914E0,-5.2608914E0,-3.4169862E0,-2.6303267E0,2.6049256E-1,1.3024628E-2,1.0520562E0,1.56365E0,4.0944552E0,4.0944552E0,6.777918E0,3.558627E-1,9.616054E0,-7.4191946E-1,-6.152346E-1,-5.692465E-1,-4.1933295E-1,-4.1933295E-1,-3.400211E-1,-3.333089E-1,-2.6304457E-1,-2.6304457E-1,-2.2507708E-1,-2.1694694E-1,-1.3151634E-1,-1.3151634E-1,-6.0246497E-2,-5.9245855E-2,1.3024628E-2,3.281372E-2,7.81825E-2,7.81825E-2,1.4145264E-1,1.4145264E-1,2.0472276E-1,2.0472276E-1,2.7180934E-1,2.7180934E-1,3.558627E-1,4.1833267E-1,5.184808E-1],"categories":[],"categories_nodes":[],"categories_segments":[],"categories_sizes":[],"default_left":[0,0,0,0,0,0,0,0,0,0,0,0,0,0,0,0,0,0,0,0,0,0,0,0,0,0,0,0,0,0,0,0,0,0,0,0,0,0,0,0,0,0,0,0,0,0,0,0,0,0,0,0,0,0,0,0,0,0,0],"id":26,"left_children":[1,3,5,7,9,11,13,15,17,19,21,23,25,27,29,31,33,35,37,39,41,43,45,-1,47,49,51,53,55,-1,57,-1,-1,-1,-1,-1,-1,-1,-1,-1,-1,-1,-1,-1,-1,-1,-1,-1,-1,-1,-1,-1,-1,-1,-1,-1,-1,-1,-1],"loss_changes":[6.113544E5,1.6261731E5,1.1655753E5,3.279353E4,5.22828E4,1.5151785E4,3.290272E4,1.22680625E4,7.069539E3,4.0591094E3,2.1182639E4,3.0757935E2,7.911623E3,6.4138594E3,6.988875E3,1.6820625E3,5.4167656E3,1.3941016E3,1.0742617E3,1.4127344E2,2.8970312E3,1.0577227E3,3.1556038E3,0E0,7.917694E2,2.8192566E2,1.8779336E3,1.3377383E3,1.7032344E3,0E0,4.353125E3,0E0,0E0,0E0,0E0,0E0,0E0,0E0,0E0,0E0,0E0,0E0,0E0,0E0,0E0,0E0,0E0,0E0,0E0,0E0,0E0,0E0,0E0,0E0,0E0,0E0,0E0,0E0,0E0],"parents":[2147483647,0,0,1,1,2,2,3,3,4,4,5,5,6,6,7,7,8,8,9,9,10,10,11,11,12,12,13,13,14,14,15,15,16,16,17,17,18,18,19,19,20,20,21,21,22,22,24,24,25,25,26,26,27,27,28,28,30,30],"right_children":[2,4,6,8,10,12,14,16,18,20,22,24,26,28,30,32,34,36,38,40,42,44,46,-1,48,50,52,54,56,-1,58,-1,-1,-1,-1,-1,-1,-1,-1,-1,-1,-1,-1,-1,-1,-1,-1,-1,-1,-1,-1,-1,-1,-1,-1,-1,-1,-1,-1],"split_conditions":[3E0,2E0,2E0,2E0,3E0,4E0,4E0,1E0,2E0,2E0,2E0,1E0,1E0,4E0,3E0,1E0,1E0,1E0,2E0,4E0,2E0,2E0,2E0,1.3024628E-2,2E0,1E0,4E0,4E0,3E0,3.558627E-1,4E0,-7.4191946E-1,-6.152346E-1,-5.692465E-1,-4.1933295E-1,-4.1933295E-1,-3.400211E-1,-3.333089E-1,-2.6304457E-1,-2.6304457E-1,-2.2507708E-1,-2.1694694E-1,-1.3151634E-1,-1.3151634E-1,-6.0246497E-2,-5.9245855E-2,1.3024628E-2,3.281372E-2,7.81825E-2,7.81825E-2,1.4145264E-1,1.4145264E-1,2.0472276E-1,2.0472276E-1,2.7180934E-1,2.7180934E-1,3.558627E-1,4.1833267E-1,5.184808E-1],"split_indices":[8,9,7,0,4,4,0,5,5,4,3,7,1,5,4,4,8,5,4,5,0,8,5,0,4,7,5,7,4,0,1,0,0,0,0,0,0,0,0,0,0,0,0,0,0,0,0,0,0,0,0,0,0,0,0,0,0,0,0],"split_type":[0,0,0,0,0,0,0,0,0,0,0,0,0,0,0,0,0,0,0,0,0,0,0,0,0,0,0,0,0,0,0,0,0,0,0,0,0,0,0,0,0,0,0,0,0,0,0,0,0,0,0,0,0,0,0,0,0,0,0],"sum_hessian":[2.5533E4,1.3662E4,1.1871E4,5.629E3,8.033E3,4.016E3,7.855E3,3.249E3,2.38E3,2.579E3,5.454E3,1.625E3,2.391E3,3.381E3,4.474E3,1.179E3,2.07E3,1.037E3,1.343E3,1.378E3,1.201E3,1.489E3,3.965E3,1.135E3,4.9E2,9.76E2,1.415E3,2.061E3,1.32E3,2.82E2,4.192E3,5.11E2,6.68E2,6.21E2,1.449E3,4.15E2,6.22E2,1.99E2,1.144E3,1.086E3,2.92E2,4.96E2,7.05E2,9.66E2,5.23E2,4.74E2,3.491E3,1.82E2,3.08E2,8.86E2,9E1,5.92E2,8.23E2,1.826E3,2.35E2,9.9E1,1.221E3,1.459E3,2.733E3],"tree_param":{"num_deleted":"0","num_feature":"10","num_nodes":"59","size_leaf_vector":"1"}},{"base_weights":[-7.302688E-2,-4.841143E0,4.403147E0,-8.081305E0,-1.5897071E0,-1.6024292E-1,6.7364025E0,-1.0405081E1,-5.3344097E0,-4.835506E0,-2.1899796E-1,-2.1899796E-1,3.2880797E0,4.5562844E0,9.002659E0,-1.1536777E1,-7.8697453E0,-7.8697453E0,-4.835506E0,-4.835506E0,-2.527252E0,-2.527252E0,-2.1899796E-1,-2.1899796E-1,1.0308883E0,7.672705E-2,3.2880797E0,3.2880797E0,6.2775598E0,7.662835E0,9.876491E0,-6.8975055E-1,-5.2030456E-1,-4.8516303E-1,-3.9348727E-1,-3.9348727E-1,-3.176313E-1,-3.176313E-1,-2.417753E-1,-2.417753E-1,-2.0447023E-1,-1.8406895E-1,-1.263626E-1,-1.263626E-1,-6.865625E-2,-6.865625E-2,-1.0949898E-2,-1.0949898E-2,1.1780585E-2,2.029726E-2,7.672705E-2,1.2056551E-1,1.6440399E-1,1.6440399E-1,2.3914099E-1,2.3914099E-1,3.3897358E-1,3.3897358E-1,4.1955897E-1,4.3848315E-1,5.064426E-1],"categories":[],"categories_nodes":[],"categories_segments":[],"categories_sizes":[],"default_left":[0,0,0,0,0,0,0,0,0,0,0,0,0,0,0,0,0,0,0,0,0,0,0,0,0,0,0,0,0,0,0,0,0,0,0,0,0,0,0,0,0,0,0,0,0,0,0,0,0,0,0,0,0,0,0,0,0,0,0,0,0],"id":27,"left_children":[1,3,5,7,9,11,13,15,17,19,21,23,25,27,29,31,33,35,37,39,41,43,45,47,49,-1,51,53,55,57,59,-1,-1,-1,-1,-1,-1,-1,-1,-1,-1,-1,-1,-1,-1,-1,-1,-1,-1,-1,-1,-1,-1,-1,-1,-1,-1,-1,-1,-1,-1],"loss_changes":[5.4537556E5,1.3033894E5,1.4033583E5,3.950097E4,3.8813793E4,1.8193768E4,4.3046875E4,1.0491125E4,8.623555E3,1.7988203E3,1.0049925E4,1.5277993E3,2.431005E3,1.3132797E4,4.9294375E3,5.956375E3,1.3448828E3,1.1185039E3,2.3595176E3,2.8278125E2,3.746222E1,7.6198145E2,1.6617299E3,1.4234741E2,2.1211943E3,0E0,2.3243555E2,2.1691191E3,2.3474062E3,1.605375E3,1.3464219E3,0E0,0E0,0E0,0E0,0E0,0E0,0E0,0E0,0E0,0E0,0E0,0E0,0E0,0E0,0E0,0E0,0E0,0E0,0E0,0E0,0E0,0E0,0E0,0E0,0E0,0E0,0E0,0E0,0E0,0E0],"parents":[2147483647,0,0,1,1,2,2,3,3,4,4,5,5,6,6,7,7,8,8,9,9,10,10,11,11,12,12,13,13,14,14,15,15,16,16,17,17,18,18,19,19,20,20,21,21,22,22,23,23,24,24,26,26,27,27,28,28,29,29,30,30],"right_children":[2,4,6,8,10,12,14,16,18,20,22,24,26,28,30,32,34,36,38,40,42,44,46,48,50,-1,52,54,56,58,60,-1,-1,-1,-1,-1,-1,-1,-1,-1,-1,-1,-1,-1,-1,-1,-1,-1,-1,-1,-1,-1,-1,-1,-1,-1,-1,-1,-1,-1,-1],"split_conditions":[3E0,1E0,1E0,2E0,2E0,4E0,4E0,2E0,2E0,4E0,3E0,4E0,1E0,3E0,4E0,1E0,1E0,4E0,1E0,2E0,1E0,2E0,2E0,4E0,3E0,7.672705E-2,4E0,4E0,4E0,4E0,2E0,-6.8975055E-1,-5.2030456E-1,-4.8516303E-1,-3.9348727E-1,-3.9348727E-1,-3.176313E-1,-3.176313E-1,-2.417753E-1,-2.417753E-1,-2.0447023E-1,-1.8406895E-1,-1.263626E-1,-1.263626E-1,-6.865625E-2,-6.865625E-2,-1.0949898E-2,-1.0949898E-2,1.1780585E-2,2.029726E-2,7.672705E-2,1.2056551E-1,1.6440399E-1,1.6440399E-1,2.3914099E-1,2.3914099E-1,3.3897358E-1,3.3897358E-1,4.1955897E-1,4.3848315E-1,5.064426E-1],"split_indices":[3,2,2,0,5,1,0,9,6,9,6,0,4,1,1,4,4,5,9,3,3,2,0,9,6,0,0,5,4,5,4,0,0,0,0,0,0,0,0,0,0,0,0,0,0,0,0,0,0,0,0,0,0,0,0,0,0,0,0,0,0],"split_type":[0,0,0,0,0,0,0,0,0,0,0,0,0,0,0,0,0,0,